baseline/conv2d/kernel:0/n(5, 5, 3, 6)/n[[[[ 1.63537100e-01  1.28214797e-02 -3.70366313e-02  6.27285093e-02
     1.39722154e-01 -1.17850579e-01]
   [-6.81756735e-02  1.20866291e-01 -6.89714849e-02 -1.42842114e-01
    -9.14237350e-02  1.39679924e-01]
   [-6.17543757e-02  4.58562672e-02  1.78630844e-01 -5.35509437e-02
    -1.16095573e-01  2.76772261e-01]]

  [[ 9.30982903e-02 -1.49035193e-02 -2.06703581e-02 -2.72000954e-02
    -8.21222551e-03 -1.81486845e-01]
   [-6.83327094e-02 -1.21899277e-01 -2.66099572e-02 -1.50665581e-01
     3.06489505e-02 -1.39465053e-02]
   [-1.21518010e-02  1.56677857e-01  2.54783928e-01 -3.52366790e-02
     1.01800218e-01  7.82354211e-04]]

  [[ 7.25276992e-02  3.75189409e-02  6.38602376e-02  1.46501586e-01
    -3.73525470e-02  9.67273954e-03]
   [-1.02107562e-01 -1.67496830e-01 -7.53561854e-02  1.14234433e-01
     5.96291684e-02 -3.83305363e-02]
   [ 1.10156141e-01 -3.58797726e-04  2.13448018e-01 -1.26740029e-02
     8.42336789e-02 -3.29564959e-02]]

  [[-5.55748940e-02  1.35900393e-01 -9.16092470e-02 -8.34297761e-02
    -1.41913384e-01 -1.23791255e-01]
   [-1.42363042e-01 -1.59182772e-01  6.36886284e-02  1.28606543e-01
    -3.17901112e-02 -2.80214876e-01]
   [-2.90785246e-02  1.07222930e-01  1.32863224e-01 -7.37874582e-02
     2.80277640e-01  5.94372824e-02]]

  [[-1.63800329e-01  1.66169047e-01 -8.98688380e-03 -1.47540867e-01
    -8.92633051e-02 -2.22189203e-02]
   [-6.71944320e-02 -1.31331787e-01  1.81918256e-02  1.65809810e-01
     7.10129961e-02 -1.10164911e-01]
   [ 1.49746493e-01 -1.31076455e-01  6.13400899e-02 -3.72190587e-02
     1.29592523e-01  3.11910845e-02]]]


 [[[ 2.05217212e-01 -7.71841630e-02  8.88887718e-02 -2.74261951e-01
    -6.65969700e-02 -1.93946213e-01]
   [-1.06198713e-01 -4.02297862e-02 -1.86648399e-01 -1.66564837e-01
    -1.15064628e-01 -1.10120736e-01]
   [ 8.37656185e-02  6.56326562e-02 -5.43389190e-03 -1.50275841e-01
     9.15264040e-02  6.52203262e-02]]

  [[-1.17362708e-01  1.19950809e-01  1.01310099e-02  2.44252503e-01
    -1.34784788e-01 -2.01281488e-01]
   [ 8.97141844e-02  5.56787886e-02  1.08135253e-01  1.98820233e-01
    -4.48857173e-02 -1.83538854e-01]
   [ 5.60956746e-02  2.15951204e-01  3.68398786e-01  1.54455349e-01
     2.76428219e-02  2.59036601e-01]]

  [[ 1.28200606e-01  1.46088302e-01  1.43001527e-01  1.37684390e-01
    -9.33449939e-02 -1.86056793e-01]
   [-2.60297768e-02 -9.18198675e-02  2.30988418e-03  8.24040845e-02
    -4.73615453e-02 -1.43046394e-01]
   [-1.62005246e-01 -2.80655771e-02  4.02450919e-01  1.22249752e-01
    -1.07840598e-01  5.45458309e-02]]

  [[ 1.13010138e-01 -5.27077205e-02  1.08144872e-01 -2.22638801e-01
    -1.40046567e-01 -2.12751180e-01]
   [-3.41288671e-02 -1.12457760e-01 -6.18605502e-02 -1.26936808e-01
     4.98805083e-02 -5.78660518e-02]
   [-2.53632665e-01 -6.82786107e-02  1.45778641e-01 -2.35233624e-02
     2.68014893e-02  1.60482693e-02]]

  [[ 5.18793091e-02  1.55159011e-01 -3.60770561e-02  2.77929753e-02
    -2.06562027e-01 -3.58325988e-02]
   [-2.50788406e-02 -1.37290033e-02  1.23715453e-01  8.63150954e-02
     1.20327443e-01 -5.95656745e-02]
   [ 9.50645935e-03 -2.20648602e-01 -4.41268981e-02 -1.35779634e-01
     4.95298430e-02  9.67920274e-02]]]


 [[[ 1.17297702e-01 -1.43681793e-02  4.54230756e-02  2.00224966e-01
    -2.55399048e-01  2.57197525e-02]
   [-1.74915701e-01 -4.29720655e-02 -2.44658384e-02  9.09893811e-02
     2.64567249e-02 -6.38549626e-02]
   [-7.89711475e-02  8.18257183e-02  1.60824761e-01  2.96743046e-02
     1.51030779e-01 -2.65766848e-02]]

  [[ 3.75414081e-02  1.60376891e-01  2.25488797e-01  1.48138598e-01
    -1.95173442e-01  5.66953458e-02]
   [ 2.82870438e-02  1.39133230e-01 -3.89036201e-02  2.27781102e-01
    -9.76391062e-02 -1.09000355e-01]
   [ 1.32427393e-02  1.42729402e-01  2.20324367e-01 -1.06916890e-01
     1.39241993e-01 -1.76057860e-01]]

  [[ 3.02012742e-01  8.04098397e-02 -4.82294448e-02 -2.09797636e-01
    -2.16510892e-01 -3.34914550e-02]
   [ 4.24957685e-02  1.06206395e-01  1.49081796e-01 -1.84703305e-01
    -1.12745300e-01 -7.29715154e-02]
   [ 2.56959915e-01 -4.90570553e-02  2.59232461e-01 -5.80547005e-02
     2.08563969e-01 -1.96051467e-02]]

  [[ 2.89166458e-02  3.84048447e-02  1.03830520e-04 -1.63302839e-01
    -6.83547035e-02 -5.97522072e-02]
   [ 1.71302885e-01 -1.15622468e-01 -8.95908549e-02 -2.89115999e-02
    -1.60298049e-01 -1.13458276e-01]
   [ 1.81782961e-01 -4.20511477e-02  6.28128722e-02  6.12623207e-02
     1.08531378e-01 -2.15179101e-01]]

  [[ 2.16084406e-01 -7.88698643e-02 -6.04378171e-02  9.90272872e-03
    -2.49391183e-01  8.48002508e-02]
   [ 2.41840869e-01 -2.44563580e-01  4.35387157e-02  1.46786883e-01
     2.45922841e-02 -6.29760846e-02]
   [ 8.09618330e-04 -1.35851562e-01  3.27340662e-02 -6.81743026e-02
     3.45392674e-02 -1.19510561e-01]]]


 [[[ 1.54353052e-01 -7.43440837e-02  5.77266105e-02  1.23019598e-01
    -1.51685299e-02 -6.40837178e-02]
   [-1.24444067e-02 -8.38424861e-02 -2.03522127e-02  4.75411043e-02
     7.42164627e-02 -2.07597151e-01]
   [-5.59321418e-02  7.92427212e-02  6.60033673e-02  8.60788003e-02
     1.32293195e-01  3.12092621e-02]]

  [[-2.93414854e-02  3.21591124e-02  1.41115114e-01 -1.60631552e-01
    -5.69367595e-02  5.02417516e-03]
   [-9.33094770e-02  1.82873413e-01 -1.04398161e-01 -1.47392303e-01
     5.57569452e-02 -2.43487179e-01]
   [-4.07019146e-02  1.57585636e-01  1.76287591e-01  7.91098326e-02
     1.55665457e-01 -1.05036475e-01]]

  [[ 1.43775344e-01  1.05638169e-01  1.54430628e-01 -2.75819033e-01
    -1.13368034e-02 -9.27631631e-02]
   [ 4.06821966e-02  7.65585825e-02 -6.18379600e-02 -2.20799208e-01
     1.97796136e-01 -1.83262918e-02]
   [ 1.41503766e-01  6.38520494e-02  4.98154573e-02  2.27341205e-02
     3.56536359e-01 -1.15130387e-01]]

  [[-1.62038833e-01  1.01723842e-01  3.85785028e-02  9.85960215e-02
    -2.96283633e-01 -5.56726716e-02]
   [-1.29434109e-01  4.94889133e-02 -1.77582651e-01  3.43962037e-03
     1.96156234e-01 -5.94029129e-02]
   [-1.92638487e-02 -1.16124697e-01  3.45105380e-02 -9.52378064e-02
     3.14868033e-01 -2.01716855e-01]]

  [[ 2.95033175e-02 -4.78733741e-02 -1.88171156e-02  1.91690475e-01
     3.85221243e-02  2.27054283e-01]
   [-6.12331964e-02 -2.33982041e-01 -6.22579344e-02  1.42383561e-01
    -1.87168811e-02 -9.98738594e-03]
   [ 5.42599335e-02 -2.59732395e-01 -4.42219600e-02  7.31582493e-02
     2.94908136e-01 -7.69476518e-02]]]


 [[[-3.36692393e-01 -1.67387724e-01  1.46299243e-01 -5.21112755e-02
    -1.89820640e-02  1.33070514e-01]
   [-3.57311554e-02 -2.31408309e-02 -2.00858712e-02 -1.45243973e-01
     2.93295700e-02  1.15547538e-01]
   [ 1.99827865e-01  7.52114356e-02 -1.36190757e-01  5.38276844e-02
     1.85599979e-02  1.24825612e-01]]

  [[-1.85796618e-01  4.63567488e-02  1.02715842e-01 -5.70728853e-02
    -3.68066831e-03  1.41011685e-01]
   [-2.62067229e-01 -3.68747748e-02  4.67841253e-02 -7.26412088e-02
    -1.95554987e-01 -4.77986746e-02]
   [ 1.87784240e-01  2.32596025e-01  9.04329208e-05 -2.30152961e-02
     8.33546221e-02  2.50115007e-01]]

  [[-1.66274041e-01  8.57660025e-02 -7.54408315e-02  8.11289847e-02
    -1.89217001e-01  6.40351474e-02]
   [-2.76333332e-01  5.73163182e-02  5.93345203e-02  1.50256172e-01
    -8.15028399e-02  1.34400100e-01]
   [-1.78486690e-01  1.59560665e-01 -3.77743244e-02  1.41599327e-01
    -8.84805769e-02 -1.89211797e-02]]

  [[-8.97515416e-02  1.45295262e-01 -1.39761314e-01 -4.84853350e-02
    -9.63696614e-02  7.79383406e-02]
   [-3.50181572e-02 -5.33627197e-02 -2.51234360e-02 -1.01694994e-01
     2.25954857e-02  2.21807249e-02]
   [-1.29987687e-01 -1.53516727e-02 -7.36318529e-03 -6.19021989e-02
     1.63833350e-02  8.12532231e-02]]

  [[ 3.50873955e-02 -2.86185861e-01  8.81177038e-02  8.90925825e-02
    -9.26119164e-02  1.45178854e-01]
   [-1.10916123e-01 -2.39659131e-01  3.40545587e-02 -4.48100306e-02
     1.45395892e-02  1.81653053e-01]
   [-1.08131982e-01 -1.47147462e-01 -2.99909472e-01  3.73247378e-02
     7.14033544e-02  1.02030978e-01]]]]/nbaseline/conv2d/bias:0/n(6,)/n[-0.09701817  0.08884364  0.02306518  0.00912903 -0.09701631  0.03828662]/nbaseline/batch_normalization/gamma:0/n(6,)/n[0.9129691  0.9268221  0.6167074  0.7724028  0.63578194 0.81165606]/nbaseline/batch_normalization/beta:0/n(6,)/n[-0.2664744  -0.08988354 -0.29217774 -0.19375688 -0.03470155 -0.41158032]/nbaseline/dense/kernel:0/n(1536, 128)/n[[-0.019384   -0.06210554 -0.14866078 ... -0.0470838  -0.0644886
  -0.0474773 ]
 [ 0.01060506  0.01787284  0.04874523 ... -0.03890385  0.03748065
  -0.00756504]
 [-0.04756173 -0.05889441 -0.17155221 ...  0.03878565  0.03517027
  -0.03424544]
 ...
 [ 0.02698522 -0.05465783  0.00204071 ... -0.07646896  0.02730749
   0.01596887]
 [-0.10105915 -0.01450373  0.08220945 ... -0.06663796 -0.06594593
  -0.04332012]
 [-0.03558617 -0.0452817  -0.08464938 ... -0.06216824 -0.04119024
  -0.06676262]]/nbaseline/dense/bias:0/n(128,)/n[-1.90412756e-02 -2.78258082e-02 -1.14706136e-01 -2.47343071e-02
 -2.03123987e-02 -9.12857335e-03 -8.08352325e-03 -1.21731916e-02
 -3.27490680e-02 -1.83885947e-01 -6.94835978e-03 -1.38578517e-02
 -2.42011510e-02  2.36986652e-01 -5.10964822e-03 -3.00981551e-02
 -1.97568730e-01 -1.14942165e-02  8.35875869e-02 -2.14832053e-02
 -2.04265732e-02 -7.88120832e-03  6.11589570e-03 -3.86716053e-02
 -1.90069705e-01 -2.95605715e-02 -1.58725843e-01 -2.79688034e-02
  8.01960379e-03 -1.17976153e-02  2.21205518e-01 -1.52091039e-02
 -9.59299598e-03  3.85234998e-05 -1.32842278e-02 -1.97353438e-02
  1.60377342e-02 -4.24761325e-02  8.93591996e-03 -1.38097880e-02
 -1.08029088e-02 -3.03257406e-02 -3.36737372e-02 -3.32053341e-02
 -1.49479210e-02 -1.79342963e-02 -1.25132622e-02 -7.90393446e-03
 -3.31465038e-03  8.21500793e-02 -4.07469757e-02  1.56384967e-02
  3.93354259e-02 -1.16648246e-02 -1.51727535e-02 -2.12396324e-01
 -9.27984808e-03 -2.17486843e-02  1.56704988e-03 -1.81981046e-02
 -1.77432001e-02 -1.97546035e-02  7.03937039e-02 -2.18666364e-02
 -1.01013656e-03 -1.10921171e-02  7.24153891e-02  1.50161117e-01
 -2.12198384e-02  1.84660375e-01 -1.50885722e-02 -2.19916757e-02
  3.87732908e-02 -2.40730718e-02 -2.59018596e-02  2.35915750e-01
 -2.03661658e-02 -1.67876501e-02 -1.42964330e-02 -1.25645287e-02
 -1.29122898e-01 -8.42603482e-03 -4.15497757e-02 -4.02980521e-02
 -1.03972778e-02  1.73597485e-01  1.13706738e-01 -8.55010599e-02
 -4.16644588e-02 -3.84860002e-02 -1.51949078e-02 -1.37156295e-02
 -2.40908042e-02 -8.99465475e-03 -1.99111868e-02 -9.35331136e-02
 -1.17340721e-02  3.28606851e-02 -2.55968645e-02 -2.48005223e-02
  1.21060424e-01 -1.34775434e-02  1.99417770e-02  1.97840333e-01
  5.45428246e-02 -2.47332752e-02 -3.30896527e-02 -3.70442271e-02
 -1.65592302e-02 -1.03528630e-02  2.56913215e-01 -2.18892768e-02
 -2.63640173e-02 -1.61528997e-02  5.93243502e-02 -9.31884814e-03
  1.88039988e-01 -9.93376132e-03 -3.21423039e-02 -1.83466617e-02
 -2.83762831e-02 -1.89744644e-02 -1.04413088e-02 -3.05220168e-02
  2.13746861e-01 -1.73576698e-02 -3.46799679e-02 -1.85116529e-02]/nbaseline/dense_1/kernel:0/n(128, 10)/n[[-0.10675412  0.15242723 -0.01033619 ...  0.10981945 -0.11746499
  -0.07775482]
 [ 0.09169219 -0.01481019  0.14124836 ... -0.0922678   0.1183955
   0.02907575]
 [-0.07960891  0.01112007 -0.07896192 ...  0.07219009 -0.15823083
   0.011819  ]
 ...
 [ 0.18422794  0.12536587 -0.14856444 ... -0.14446189 -0.16611443
   0.03300402]
 [-0.05641802  0.16489425  0.11623394 ...  0.05965632 -0.00739484
   0.10145199]
 [-0.03013533  0.1183252   0.11578517 ... -0.12599961 -0.0005715
   0.07191196]]/nbaseline/dense_1/bias:0/n(10,)/n[-0.13858357 -0.21738628 -0.05630921  0.16570294  0.2099853  -0.10052081
 -0.02434609 -0.02945784  0.12019487  0.06513617]/n