sequential/dense/kernel:0
(784, 128)
[[ 7.03169033e-02  5.91850653e-02 -4.79912981e-02  7.74271116e-02
  -2.32551955e-02 -3.26136500e-03  5.48795387e-02  6.94875941e-02
  -5.33951148e-02 -7.96373636e-02  9.50541347e-03  6.45632669e-02
   4.17333469e-02 -4.98240069e-02 -2.45220661e-02 -7.64155611e-02
   1.64885148e-02  4.42525223e-02 -1.97577663e-02  1.71902031e-03
  -5.06769232e-02  5.07072434e-02 -1.27808750e-02  3.56309861e-03
  -1.73527971e-02 -6.33811802e-02  2.97240913e-03  8.02393481e-02
  -3.43946926e-02  1.72971040e-02 -4.64955010e-02  7.24553689e-02
  -5.62598109e-02 -4.65959832e-02 -1.05094165e-03 -6.02426715e-02
  -6.51361942e-02 -5.98729029e-02  1.63291991e-02 -5.99451326e-02
   5.89240864e-02  1.47060975e-02  2.56404281e-04 -5.85579202e-02
  -4.76426668e-02  6.94485381e-02  4.41295877e-02  3.55828404e-02
  -6.08356446e-02 -6.32278845e-02 -2.74432339e-02  6.65277764e-02
   8.05628970e-02 -7.80698583e-02  3.81265804e-02  4.67090979e-02
  -4.70181182e-02 -4.39564213e-02  3.03827673e-02 -3.53616476e-03
   8.62143934e-03  3.55596691e-02 -6.76220506e-02  2.96021402e-02
   6.41023591e-02  4.77500260e-04 -6.14250526e-02 -7.07587600e-02
   5.74671254e-02 -1.77579969e-02 -4.40125577e-02  2.55541876e-02
   9.18089598e-03  7.98298940e-02 -3.64485569e-02 -3.80575806e-02
   1.84998512e-02  6.04514703e-02  2.64758319e-02 -6.77016079e-02
   1.47327483e-02 -2.36525796e-02 -6.92574680e-02 -4.07485254e-02
   1.85534135e-02  5.39346114e-02  2.69192979e-02  7.96124116e-02
  -1.18782967e-02  7.56568983e-02 -5.57173714e-02  5.15159294e-02
  -6.96538687e-02  3.62396240e-05 -6.95967823e-02 -3.78928557e-02
   4.88693789e-02 -1.52374953e-02 -6.96248636e-02  3.45528200e-02
   7.99855590e-03 -1.65398419e-03  3.06941569e-02  7.34598711e-02
  -5.07812724e-02 -1.42442062e-02 -1.13291144e-02 -4.74188663e-02
   2.71811634e-02  2.77246609e-02  6.83865771e-02 -1.79823339e-02
  -7.73859024e-03  4.02113050e-03  6.27852306e-02 -5.98961301e-02
  -1.29935965e-02 -4.19130586e-02 -7.11537302e-02 -3.79133224e-03
   6.10863194e-02 -6.06242344e-02 -4.54070643e-02 -7.00079501e-02
  -1.26760453e-03 -5.89495003e-02  8.09049234e-02 -3.88208777e-03]
 [-4.85295206e-02 -3.82285491e-02  3.15019339e-02  2.24637166e-02
   3.37389484e-02 -5.28730750e-02  5.00569120e-02  5.90094998e-02
  -3.81615050e-02 -3.27857584e-03 -7.30160624e-02 -3.32206264e-02
  -1.52284056e-02  5.59457615e-02  2.64491662e-02  3.86954769e-02
  -4.71170917e-02  2.85216942e-02 -5.80431521e-02  3.32643539e-02
  -4.91554812e-02  6.98183551e-02  1.38785765e-02 -2.90877633e-02
   6.42585829e-02 -4.02450897e-02 -3.93957719e-02 -4.66124564e-02
   2.81358138e-02  6.80979118e-02  6.12075105e-02 -4.91489284e-02
  -7.58251250e-02 -2.28446424e-02 -3.87045443e-02 -2.23647244e-02
  -6.30909503e-02  4.32696790e-02  7.44221881e-02  5.71393147e-02
   1.15791708e-02  7.99211189e-02 -2.97269896e-02  7.34521970e-02
  -8.15071166e-04 -7.93014765e-02 -7.17005208e-02 -7.61120766e-03
  -4.61618565e-02  7.79708847e-02  1.41597167e-02 -5.87119870e-02
  -5.53729013e-02 -7.57066384e-02  6.50353655e-02  5.08480147e-02
  -2.53029093e-02 -6.18343800e-03  5.85792139e-02 -4.32776250e-02
  -3.55229303e-02 -4.47362177e-02 -8.04743990e-02 -1.36430562e-02
  -5.99461384e-02 -7.00833127e-02  1.50552690e-02  5.10413721e-02
  -7.71424472e-02 -1.74083561e-03  5.80422580e-04 -4.69076745e-02
  -4.09929007e-02  6.17014691e-02  5.48349842e-02  7.12777600e-02
  -5.87335676e-02  6.69173971e-02  1.97531804e-02  5.58597371e-02
   3.42573151e-02 -4.72458266e-02 -3.01405042e-03  7.74311274e-03
   6.21805564e-02  4.23553213e-02  6.84939548e-02 -3.20106484e-02
   5.19692376e-02  2.38567516e-02 -7.49575719e-02  7.12788478e-02
   6.45456985e-02  7.99249858e-03 -3.31146158e-02  5.68362847e-02
   7.09433481e-02  3.79208997e-02 -6.72946721e-02  5.88496700e-02
   9.74944234e-03  6.64689317e-02  4.74853888e-02 -3.26296501e-02
   5.73165715e-03 -5.03237695e-02  1.59162357e-02 -6.03537485e-02
   2.62892395e-02 -5.45020588e-02  5.88514581e-02  7.88609311e-02
  -4.17076796e-03  4.30293232e-02  3.63689661e-03  8.22398067e-03
   1.54682249e-02 -4.17662598e-02  9.66031104e-03  5.33375144e-03
  -7.81749412e-02 -8.08480009e-02  3.92276272e-02  3.23203877e-02
   3.07206139e-02  6.12773076e-02 -6.98909163e-02 -5.12409247e-02]
 [ 8.73152912e-03  7.55383149e-02 -1.45962760e-02  6.16577938e-02
  -7.82938525e-02  5.43446019e-02  1.99163035e-02  2.08139271e-02
  -7.78890476e-02 -7.31657445e-02  3.45425159e-02  3.30489054e-02
  -5.75258508e-02  6.24963120e-02 -2.73435228e-02  4.48557809e-02
  -3.94659117e-02 -5.25811687e-02  6.68495893e-03 -6.80747628e-02
  -9.59825516e-03 -4.63509075e-02  1.74219906e-02 -5.32518402e-02
   2.53247991e-02  1.07611045e-02  1.30333975e-02 -2.12884694e-02
   2.50843242e-02  6.78157881e-02  7.87130669e-02  4.44160923e-02
  -2.11468935e-02 -6.16757944e-02 -2.69271322e-02  5.12522981e-02
   7.58896396e-02  7.25013763e-03  5.86969927e-02 -1.26858056e-02
   7.45259151e-02 -4.33323905e-02 -8.01949799e-02 -2.73288265e-02
  -3.54721658e-02  3.25942189e-02 -3.14286351e-03 -3.70352827e-02
   1.39393583e-02  1.47861019e-02  6.35184348e-04  2.94350982e-02
  -1.61213353e-02  7.10866079e-02 -4.27487232e-02 -2.69618630e-03
   6.32944033e-02  4.60492447e-02  6.11266866e-02  7.93629661e-02
  -3.29460241e-02  2.63677686e-02 -1.94561072e-02 -7.76143596e-02
   6.49546608e-02  5.68368658e-02 -4.10105959e-02  2.40171254e-02
   6.89912662e-02 -7.34295174e-02 -7.08793104e-03  1.35134906e-02
  -6.38001412e-02 -3.09701525e-02  2.54978389e-02 -2.37341486e-02
   1.82740912e-02 -2.90543251e-02  1.96192265e-02 -4.61921208e-02
  -1.79804042e-02  4.47373912e-02 -5.12211993e-02  3.69624719e-02
  -6.42335415e-03  6.92891404e-02 -5.86918183e-02 -6.40289485e-03
   2.05405205e-02 -1.04675144e-02  7.09104538e-03 -6.29181266e-02
   4.35844809e-03 -5.57060800e-02  2.68388540e-02  2.62591317e-02
   3.90614495e-02  1.59513876e-02  5.45164421e-02  4.49062064e-02
   2.76860818e-02  9.14562494e-03  4.01174203e-02  3.69157344e-02
  -4.25493270e-02 -5.75087778e-02  5.43321744e-02  2.12071836e-03
  -4.71813343e-02 -5.04195318e-02  9.64429975e-03  7.45512918e-02
   5.94901666e-02 -1.36878416e-02 -6.44868463e-02 -5.80189973e-02
  -9.55577195e-03  7.44533613e-02  5.27559593e-02 -6.49377555e-02
   5.42111471e-02  1.85975656e-02 -7.32954592e-02 -4.02457267e-03
   5.14031574e-02  3.72613668e-02  1.58573836e-02  4.39571515e-02]
 [-5.74762672e-02 -3.77112702e-02 -3.97317149e-02  1.88978538e-02
   3.73966172e-02 -3.36890668e-03  9.04945284e-03 -3.23809981e-02
   6.91842362e-02 -6.70238435e-02 -7.10598975e-02 -3.38764079e-02
  -3.69280502e-02 -2.07360834e-03  1.13516599e-02  7.25901201e-02
  -6.84481263e-02 -5.99384233e-02  4.17859629e-02 -7.56414309e-02
   3.59645411e-02 -7.50904083e-02  8.05857107e-02 -1.38459876e-02
   1.73584372e-03  4.44150642e-02  3.31359282e-02 -2.91655809e-02
   7.81101212e-02  1.29348040e-03  3.82402316e-02  6.30924627e-02
   6.61199316e-02  7.72528723e-02  3.74252349e-02 -3.99931110e-02
  -3.50382924e-03 -5.84454685e-02  8.83452594e-03  7.07601756e-03
  -3.13852280e-02  3.40068042e-02 -2.95834020e-02  3.60617712e-02
  -3.83169279e-02 -1.13108009e-03  6.90751448e-02  2.58662328e-02
  -3.26215476e-03 -6.59923926e-02 -6.65587559e-02  6.54645190e-02
  -2.53866613e-02  1.67683735e-02 -5.01286238e-02  1.49322003e-02
   5.80083802e-02  7.60477036e-03 -5.67926019e-02  5.37283719e-03
  -2.52024643e-02  1.83389932e-02 -3.93786766e-02 -4.70098592e-02
   8.10448453e-02  7.65073672e-02 -3.53227966e-02  1.74129754e-03
  -1.94501914e-02  4.53648344e-02 -8.13098252e-03  4.38003391e-02
   4.67883721e-02 -5.29160276e-02 -5.08150384e-02  7.26576075e-02
  -7.58799091e-02  1.62317008e-02  2.98581421e-02  6.33090511e-02
  -5.13500907e-02 -4.60201465e-02 -5.42346090e-02  2.77884007e-02
   4.13634405e-02 -3.53905782e-02 -2.62335241e-02  2.30722576e-02
  -2.21823901e-03 -3.06166299e-02  7.85462186e-02 -1.52503029e-02
  -2.70652473e-02  7.06892088e-02 -4.35055457e-02 -2.24666297e-03
   4.46436778e-02 -3.47420685e-02 -2.70068459e-02 -3.84064056e-02
  -5.12126833e-03  4.90609631e-02 -4.92440313e-02 -4.70815077e-02
   3.30265686e-02  7.84121379e-02  3.36532444e-02 -6.66812062e-02
  -1.39453337e-02 -7.81373456e-02  3.43771949e-02 -9.86704230e-03
   6.51711002e-02 -7.01298043e-02  7.76997283e-02 -2.22013742e-02
  -5.03065735e-02 -2.64233872e-02  1.05931759e-02  1.16978362e-02
   3.91479358e-02 -2.93319076e-02  3.77913713e-02 -1.85901374e-02
   6.17533401e-02  2.83648372e-02  4.76204678e-02 -5.52687459e-02]
 [ 1.03541091e-02 -3.79567705e-02  5.12918755e-02 -4.23507430e-02
  -6.88829869e-02 -6.47940189e-02  2.07679644e-02  3.63782644e-02
  -5.48537448e-02 -1.19912624e-03  1.46618560e-02 -6.78434744e-02
   1.30361989e-02  5.03000543e-02 -7.20495135e-02 -6.11775443e-02
  -1.52442306e-02 -3.22305448e-02  2.79077590e-02 -2.87469253e-02
   3.40560004e-02  6.11842424e-03  5.27071878e-02 -1.86113156e-02
   5.82413748e-02  3.47476378e-02 -7.80470222e-02  8.81204009e-03
   3.07909250e-02  6.38656989e-02 -3.03186066e-02 -3.11193839e-02
   2.20250115e-02 -4.00724187e-02 -2.74186730e-02  2.55704373e-02
  -7.27733523e-02  2.32991353e-02  5.38929477e-02 -5.85354865e-02
  -3.97570878e-02 -4.10700999e-02 -4.55301516e-02  7.88419619e-02
  -2.63213366e-03  2.01663077e-02  4.99831662e-02 -6.48549348e-02
  -6.11674264e-02  4.86571118e-02  7.95381144e-02 -4.73555140e-02
   1.23237073e-03 -5.79331964e-02  2.20854580e-02 -5.82811311e-02
  -4.74874564e-02 -5.79355732e-02  2.33679563e-02 -2.22086646e-02
   6.02914616e-02 -3.21572348e-02  6.56278431e-03  6.28041103e-02
   3.38535905e-02  6.60896301e-03 -7.84375146e-02 -1.76836401e-02
  -7.02361241e-02  5.94281480e-02 -4.30456251e-02  5.56416586e-02
  -4.83222529e-02  2.75502130e-02 -3.32590155e-02  8.46955925e-03
  -2.52687372e-02 -7.67447799e-03 -2.87625492e-02  3.26015279e-02
   6.97376058e-02 -2.01065540e-02  7.29081407e-02  7.47100636e-02
  -2.42345817e-02  5.50743714e-02 -3.59815769e-02  6.55523762e-02
   3.06493491e-02 -3.11061405e-02 -6.44272491e-02  7.54597113e-02
   7.25771263e-02 -7.46741071e-02 -1.13693178e-02 -2.44753063e-02
   7.82557353e-02 -3.89411300e-03  6.71866909e-02 -4.58132252e-02
  -3.92419733e-02  8.06784406e-02 -3.77977714e-02  1.45256966e-02
  -5.18109798e-02  4.25808653e-02  3.68916169e-02  3.32871154e-02
   7.63788149e-02  5.55058494e-02 -6.33971766e-02  7.03657493e-02
  -2.83886231e-02 -6.87255338e-02 -3.04070786e-02 -2.35326216e-02
  -7.87729397e-02  3.89976576e-02  3.77307236e-02 -5.56810945e-02
   4.95996997e-02  4.29094806e-02 -4.49347235e-02 -6.03339300e-02
  -1.79655328e-02 -3.25483084e-03  4.12886590e-03  2.46937722e-02]
 [ 5.62754050e-02 -6.69860691e-02  5.20095602e-02  7.63537809e-02
  -3.64158377e-02  4.94255945e-02  5.07355481e-03  7.03500882e-02
  -7.07583353e-02  8.07985291e-02  1.14040077e-03  2.97992006e-02
   7.22097605e-03 -2.42341384e-02 -7.13397413e-02 -2.16042064e-02
  -7.12549984e-02  6.73118606e-02  3.49141806e-02 -7.93991312e-02
   4.92449179e-02 -6.86173141e-03 -3.63983214e-03 -5.60781881e-02
   3.72648090e-02  4.98338118e-02  1.31696537e-02 -1.07676983e-02
   4.91885766e-02 -6.36548400e-02  1.29625425e-02 -3.73953022e-02
   3.53073478e-02 -1.51209533e-04 -5.18104360e-02 -4.65285033e-03
  -3.69456410e-03 -5.38814142e-02  7.28745237e-02  3.84806246e-02
  -2.05254555e-03  5.08145913e-02  7.14328513e-02 -3.76597717e-02
  -4.07141037e-02 -5.92780784e-02 -4.86498848e-02 -4.58163582e-02
  -2.60475874e-02 -1.78935155e-02 -5.95330335e-02  1.00372508e-02
  -3.48133892e-02  6.39083758e-02  7.16216862e-04  1.75724253e-02
  -1.41066536e-02  2.34830230e-02  6.52720258e-02 -4.01583202e-02
  -1.34564787e-02  2.64406577e-02  7.78626725e-02 -5.17090112e-02
  -6.84703290e-02 -6.48703650e-02 -7.99362361e-03 -3.15441117e-02
   3.33656669e-02  1.23774037e-02 -4.28569019e-02  1.62529498e-02
  -1.47573501e-02  6.16858825e-02 -3.28999385e-02  2.96965316e-02
  -2.36715116e-02  2.61719152e-02 -4.38769981e-02  8.17450881e-03
   7.18034133e-02 -4.62816171e-02 -3.89975198e-02 -4.41619270e-02
   7.20022395e-02  7.06544146e-02  2.54960358e-03  6.77972510e-02
   1.00252479e-02  4.62873653e-02  6.67728484e-04  2.29543895e-02
  -6.20298609e-02 -3.54873836e-02  3.76891643e-02  3.66022587e-02
   1.62629858e-02  1.74610317e-02 -6.80530816e-02  5.64611033e-02
   3.51867154e-02  5.96783832e-02 -3.46546583e-02  2.90401280e-03
   3.35841477e-02  4.61087003e-02  1.22811943e-02 -9.86082852e-03
   5.62741980e-02  6.91862926e-02  4.28954512e-03 -6.77273870e-02
  -7.39884302e-02  3.96210402e-02  1.63188577e-02 -3.12632434e-02
  -3.95753086e-02 -6.04964271e-02 -2.57264376e-02 -2.71106139e-02
   6.62409291e-02 -5.90698421e-02  1.84200704e-04  6.34549186e-02
   4.95048612e-03  2.99767405e-02  5.52959368e-02  6.81747720e-02]
 [-7.36798719e-02  1.42619014e-04  5.28793260e-02 -2.15103589e-02
   6.49266466e-02 -5.63936345e-02 -6.07603975e-02  4.99905720e-02
  -7.89058134e-02 -3.85111235e-02 -7.94587508e-02 -3.34986337e-02
   7.53153488e-02 -7.53569826e-02 -1.84637234e-02 -6.98162690e-02
  -4.63291258e-03  5.27824536e-02 -9.44711268e-04 -2.47281045e-03
  -6.91225082e-02  6.89506158e-02 -6.26601875e-02  6.15873262e-02
   4.09672633e-02 -7.12118745e-02 -6.67191297e-02 -4.76706102e-02
  -3.61966938e-02 -7.89248794e-02 -4.62678485e-02  2.96657234e-02
   2.57085860e-02 -4.77302708e-02 -5.29455021e-02 -4.51265424e-02
  -7.76145533e-02  2.37488598e-02 -2.92068869e-02 -7.34236389e-02
   2.81813592e-02 -4.13219035e-02  2.89299414e-02 -7.90418983e-02
   4.92739305e-02 -2.06629932e-02 -7.63195455e-02  4.56211716e-03
   6.83890507e-02 -4.74396721e-02  3.65669653e-02 -7.99006224e-03
  -4.90899086e-02  2.00119913e-02 -8.07796940e-02 -3.12889032e-02
  -1.87756717e-02  2.38523409e-02 -4.02500406e-02 -3.92940640e-03
   2.96840221e-02 -3.57858837e-04 -3.25459130e-02  2.60837898e-02
  -2.31104866e-02 -9.42248851e-03 -9.24298912e-03  1.65279582e-02
  -3.99824753e-02  1.66495144e-03  4.96560410e-02  6.96160868e-02
   1.56407803e-02 -3.41156796e-02 -8.02810937e-02  4.64294776e-02
   6.17209077e-03  6.85624704e-02 -2.48413794e-02 -5.16081974e-02
   7.65707865e-02  6.18683323e-02  2.21983343e-02 -4.09733914e-02
  -4.96640988e-02 -3.86484638e-02 -4.91139069e-02  7.28223547e-02
   1.77069381e-02  1.75502226e-02  3.13231125e-02 -3.23700123e-02
   4.93425950e-02 -6.37179390e-02 -2.45017819e-02 -6.99817464e-02
   6.29063472e-02 -8.71047378e-03  8.07583705e-02  1.52576640e-02
   1.76023021e-02  8.09763595e-02  5.11020422e-03 -3.76019888e-02
  -6.12307042e-02 -2.05933377e-02  7.37012848e-02 -7.02096149e-02
  -1.78391337e-02  1.84659660e-03  5.08034751e-02  7.18786493e-02
   6.44015446e-02 -7.75721297e-02  2.59020105e-02 -5.40614128e-03
   7.28579536e-02 -7.88617879e-03 -3.37547325e-02  1.84068680e-02
  -4.83873487e-03 -3.85811850e-02 -7.90709406e-02  4.30652127e-02
   4.81892303e-02  3.10819820e-02  5.75713739e-02 -3.73400524e-02]
 [ 9.29696858e-03  7.07582906e-02 -3.06974053e-02  7.02039823e-02
  -6.66607842e-02  6.79087266e-02 -5.06461188e-02  4.47707400e-02
  -5.61183542e-02  6.74056336e-02  3.90729606e-02 -3.24530527e-02
   7.67481998e-02  4.83407602e-02 -4.17572260e-03 -2.44909525e-02
   1.71330795e-02  5.09730652e-02  6.76865652e-02  5.07990494e-02
   1.78184658e-02 -3.68883274e-02 -5.38609549e-02 -4.00082543e-02
   4.74528000e-02  7.09334388e-02 -1.57225206e-02  3.52814049e-03
  -7.39169866e-03 -4.01704758e-03 -7.50028640e-02 -7.33533427e-02
   1.44270509e-02 -5.18399701e-02 -1.12440437e-03  2.49619707e-02
  -3.67027596e-02 -5.58744781e-02 -2.69451551e-02  4.89205644e-02
  -6.33524358e-03 -3.70916128e-02 -1.00466311e-02 -4.33724821e-02
  -6.79770038e-02  7.91336820e-02  1.99888200e-02 -4.32588682e-02
   3.97619456e-02  4.11261022e-02  6.66347891e-03  2.90198848e-02
  -1.30385607e-02  3.63252759e-02  8.05692151e-02  4.35345620e-03
   2.83872113e-02  5.53222969e-02  6.07460067e-02  3.20325047e-03
  -1.26189739e-02 -6.32432625e-02 -3.32952924e-02 -5.86343817e-02
   4.11778912e-02  2.24022195e-02 -1.67861506e-02  6.49186149e-02
  -5.37610799e-03 -1.59640014e-02  5.34704402e-02 -5.18016592e-02
  -2.26744264e-02 -2.08359174e-02  6.69254139e-02 -5.21089882e-03
   5.81389144e-02  2.07235962e-02 -6.37918711e-02  3.40311304e-02
  -6.34200126e-02 -4.35121357e-03  3.69342417e-03  3.87286618e-02
  -3.90885621e-02 -1.65147334e-02 -6.88263252e-02  5.98564520e-02
  -4.61705178e-02 -5.35789132e-03  6.18890896e-02 -2.08080672e-02
   8.22347403e-03  7.77878091e-02  6.39592633e-02 -7.45172054e-03
   4.55653593e-02  1.59101635e-02  7.98180327e-02 -3.19552273e-02
   5.92311695e-02 -3.80271412e-02 -3.59897166e-02  2.08761021e-02
   6.46425039e-03 -7.10165203e-02 -5.48395142e-02  5.76371029e-02
   6.92104027e-02 -4.71400470e-02  5.67424297e-03 -2.82052793e-02
   5.79782203e-02  5.46109751e-02 -2.96440087e-02 -5.33903390e-02
   2.99896970e-02 -4.16839123e-03  8.04372653e-02  3.89259458e-02
  -2.57665664e-03  1.29320249e-02 -6.41378090e-02  2.89977640e-02
   4.06004488e-04  6.14251122e-02 -7.13305920e-02  4.91191968e-02]
 [ 9.00459290e-03 -2.77792364e-02 -4.09432612e-02 -3.37867737e-02
   6.00233600e-02 -5.97318113e-02 -1.09738857e-03 -3.85828465e-02
  -3.79985981e-02  5.22770062e-02 -7.71341547e-02  1.24064460e-02
   3.25902402e-02  6.52621612e-02 -2.57543027e-02 -7.62864575e-02
  -7.64355808e-02  5.48777059e-02  2.25662291e-02  1.26424134e-02
  -1.45882368e-03  7.37451389e-02 -4.68348488e-02 -4.41508479e-02
   4.65837941e-02  7.77177587e-02 -6.16595112e-02  4.82876524e-02
  -4.59421910e-02 -2.15228498e-02 -4.75513898e-02 -3.55337970e-02
   6.91166893e-02  1.50130540e-02 -3.94202359e-02 -1.80598274e-02
  -1.21164322e-02  2.43875906e-02  6.06996939e-02 -1.43393129e-03
  -5.48674166e-03 -8.10553133e-03  4.92994413e-02  5.14402315e-02
   1.09809637e-02  6.03307709e-02  2.48533860e-02  3.49486619e-02
  -1.75800994e-02 -1.27710328e-02  1.60805508e-02 -5.46305813e-02
  -2.67099440e-02 -6.81200325e-02  6.92684203e-03 -5.10235056e-02
   6.02074340e-02 -1.51908696e-02  3.04770842e-02 -1.50722712e-02
   5.57289645e-02 -2.89368853e-02  5.27951121e-03 -1.32489204e-02
  -9.97595489e-03 -7.56017119e-03  1.51233822e-02  5.42632565e-02
   5.93634769e-02 -1.91515312e-02  3.40383276e-02 -6.22261241e-02
   2.29795650e-02  6.31787851e-02  2.20633745e-02 -5.40119112e-02
   4.51289788e-02  1.51427388e-02  3.66234332e-02 -1.04996338e-02
   7.15807751e-02  3.32546011e-02  5.34564033e-02  1.55697837e-02
   6.80694208e-02  2.86908448e-02 -3.11065651e-02 -4.12832461e-02
  -7.91987330e-02 -7.14893788e-02  1.31425634e-02 -6.48863614e-02
  -4.09885533e-02  5.33637926e-02 -5.12848236e-02  8.01556334e-02
  -6.45510852e-04 -5.13619445e-02 -4.57076952e-02  3.84185910e-02
  -3.76162678e-03  1.71788484e-02  5.94219342e-02  5.52425608e-02
  -1.00479871e-02 -5.71522787e-02 -7.42817372e-02  1.90527886e-02
   3.70621979e-02 -5.67543507e-02 -5.93716651e-03 -7.04738349e-02
  -3.20568681e-04  6.90300018e-03  6.16202876e-02  6.99770376e-02
  -2.34604627e-03  5.56837693e-02  7.20463023e-02  7.00534806e-02
   6.70262054e-02  1.39241964e-02  5.84407225e-02 -6.26717582e-02
  -2.46436447e-02 -7.10614249e-02  5.48567995e-02 -4.28056754e-02]
 [ 5.93026206e-02  4.42592725e-02  2.86105126e-02 -2.85983868e-02
  -5.37207909e-02  4.94980738e-02  1.76983178e-02  2.75579095e-02
   1.98192149e-03  5.08403778e-03  3.27662155e-02  8.38893652e-03
  -5.22203147e-02 -7.34831840e-02 -6.21101707e-02  5.10924235e-02
  -5.49556389e-02  4.94229272e-02 -1.49802119e-03 -8.24041665e-04
  -5.54764941e-02 -5.35416007e-02  2.21389905e-02 -2.97692642e-02
   7.55876526e-02 -3.37729864e-02  5.46231866e-04  6.95625767e-02
  -4.28205654e-02 -4.31947224e-02 -2.06571929e-02 -2.51425356e-02
  -1.42485201e-02 -7.26633742e-02 -2.72438750e-02 -4.79151048e-02
   4.85713556e-02  2.64524966e-02  3.74709889e-02 -7.66684264e-02
  -5.07391356e-02 -1.98794045e-02  5.86151853e-02 -7.23949000e-02
   4.79498431e-02  1.32679492e-02 -2.51013264e-02 -3.41017544e-03
  -2.55062878e-02  5.99152967e-02 -5.83905280e-02  7.38279894e-02
  -2.73915976e-02  5.67754433e-02  4.99188900e-03  3.71591598e-02
  -1.34363472e-02  5.98768517e-02  1.95775926e-02 -5.92619292e-02
   7.30471537e-02  3.31481248e-02 -4.46033813e-02  3.94443721e-02
  -2.21922845e-02 -7.66627416e-02  4.85821441e-02 -5.95875308e-02
   1.70791894e-03  3.25397626e-02 -2.57108882e-02  2.88882107e-02
  -5.08331209e-02  3.83929238e-02  3.37708816e-02  2.28656828e-02
  -2.35653445e-02  7.91457966e-02  6.02732226e-02  3.45096216e-02
  -3.39394696e-02 -4.48941141e-02 -6.00625947e-02  6.14971668e-03
   2.36188620e-03  2.36755535e-02  4.77415100e-02  3.70143950e-02
  -3.58911678e-02  1.52189508e-02  3.50289121e-02 -3.83705720e-02
   1.14094615e-02 -7.39579722e-02  1.88357905e-02 -1.97566822e-02
   5.94671890e-02  4.64659557e-02 -6.11442812e-02  3.62555236e-02
  -5.81867769e-02 -3.44763584e-02  6.06307313e-02 -1.90012716e-02
   1.31712407e-02  1.52190775e-03 -6.85521439e-02  3.37534770e-02
  -6.19442090e-02  7.64888003e-02 -5.86810857e-02 -3.28977406e-03
   7.70692751e-02  3.24455649e-02  8.06679055e-02 -1.98117979e-02
   5.55303916e-02 -1.33113265e-02 -3.23762186e-02 -7.53860921e-03
  -2.34432407e-02  2.94930488e-03  3.48530337e-02 -5.47515824e-02
   5.06135449e-02 -4.10146192e-02 -3.27602774e-03  4.94109765e-02]
 [ 8.00649151e-02 -4.47781831e-02  6.36854842e-02  6.68318942e-02
  -8.01307186e-02  2.58464366e-03  2.18351856e-02 -5.08807302e-02
   8.02650377e-02 -7.83722699e-02 -3.89946960e-02 -7.29005784e-03
  -4.88708429e-02 -4.19068336e-03  7.22357258e-02 -3.05317342e-02
  -2.03121752e-02  7.34061822e-02 -6.71755075e-02 -3.69989648e-02
   4.58579734e-02 -4.44947220e-02  2.14827657e-02  3.59126553e-02
   1.43897086e-02 -5.17644323e-02 -5.84203266e-02 -4.98983264e-02
  -8.40806216e-03  6.54448643e-02 -7.49227405e-02 -7.14788809e-02
  -9.29025561e-03 -4.88999486e-03 -7.69794881e-02 -6.90353140e-02
  -4.97441031e-02 -8.01721662e-02  4.54153642e-02 -4.31168079e-02
   5.79660311e-02  6.00994006e-02 -2.08919793e-02 -3.80028151e-02
  -6.21369742e-02 -3.38539965e-02 -3.23659703e-02 -5.16129360e-02
  -3.86873707e-02  4.73655015e-03 -6.35979623e-02  1.60327628e-02
   3.62200737e-02 -7.96605125e-02 -7.44729117e-02 -4.04286683e-02
   2.73010582e-02 -8.04649442e-02 -2.49363519e-02 -1.07553601e-03
  -1.46467686e-02  4.03428450e-02 -8.37713480e-04  2.61838436e-02
   7.33938143e-02  2.64572501e-02 -1.65898651e-02 -1.05826557e-03
  -7.89038613e-02  5.04125729e-02 -3.11326310e-02  5.67860827e-02
  -3.49934660e-02  8.38990510e-03  5.28788567e-03  6.86946139e-02
  -3.19443643e-03  6.04646876e-02 -2.50388235e-02 -5.41906953e-02
   3.80407199e-02  1.19085237e-02 -7.00210035e-02 -3.90858948e-02
   4.06059623e-02 -7.39478394e-02  1.71269476e-02 -7.89774805e-02
  -3.95608060e-02  5.35701886e-02  2.70025134e-02  2.48922035e-02
  -1.40914321e-03  5.97366616e-02 -7.53875598e-02  1.15349665e-02
   7.95779005e-02  1.26610920e-02  5.07017598e-02  6.37105629e-02
   9.05742496e-03  8.13825428e-03  3.56089473e-02 -4.05704230e-03
   7.77553245e-02  6.88697770e-02  2.15383768e-02  8.19129497e-03
  -2.38771737e-03  3.54943275e-02  3.42191234e-02  5.91682568e-02
  -2.19837576e-03  7.54781812e-03  1.67953521e-02  5.67261502e-02
  -6.36946708e-02  5.12381271e-02  4.64028344e-02 -5.07431552e-02
   1.32542402e-02  7.55899400e-03  2.60263383e-02  4.33491021e-02
   3.99392769e-02  4.96469066e-02  5.92085049e-02  1.42339617e-03]
 [-6.64527044e-02 -6.57791123e-02 -6.26858920e-02  5.57005927e-02
  -7.20788687e-02  7.07779005e-02 -5.12427837e-03 -6.19239435e-02
  -5.88570833e-02  1.99413225e-02  6.01952001e-02  6.05779886e-03
   4.09607068e-02  3.68862823e-02 -3.14949453e-03  4.45979312e-02
  -7.67450258e-02  5.58384582e-02 -2.92520784e-02 -5.25444746e-03
   6.80403337e-02  6.92915246e-02  4.99122664e-02  6.21709004e-02
   4.87404838e-02 -4.18667048e-02 -6.42142966e-02 -3.51288915e-02
   2.38528848e-02 -3.72778811e-02 -3.51616517e-02  6.22075424e-02
  -4.81156632e-02  6.59858510e-02 -3.02652530e-02 -5.78303561e-02
   7.97691271e-02 -3.61107178e-02 -3.84515598e-02 -5.98847792e-02
   1.26843601e-02  3.47479433e-02 -5.57733029e-02 -5.01270220e-02
   6.23595044e-02 -4.88790795e-02 -6.68972731e-04  1.47294626e-02
  -1.00464821e-02  5.76155633e-03  5.66937253e-02  1.94237009e-02
   3.47586796e-02 -1.94250122e-02  4.02363911e-02 -3.40973474e-02
  -5.47478683e-02 -7.08391294e-02 -7.42296800e-02  3.40386555e-02
  -1.68590173e-02  2.65037566e-02 -7.32162520e-02  3.41711417e-02
   5.42799011e-02 -5.26659451e-02  9.25279409e-03  5.59794083e-02
  -6.87725246e-02  5.52498773e-02 -1.70875937e-02  6.85122386e-02
   4.69177961e-03 -3.16261835e-02  7.09508285e-02  5.12535498e-02
  -5.95689565e-03 -5.91972470e-03 -1.96617730e-02 -3.01767029e-02
  -9.33616608e-03  4.72022370e-02 -7.81477317e-02 -5.65446690e-02
  -8.90211761e-03  5.87527379e-02 -2.81941965e-02  2.84560174e-02
   2.00438574e-02  1.83257833e-02 -5.23352213e-02 -1.65337250e-02
  -8.05342719e-02  1.54920444e-02 -4.02944610e-02 -3.70080918e-02
  -5.44580668e-02  9.24032182e-03 -5.47854416e-02  9.75191593e-03
   1.86744183e-02  6.50860891e-02  6.50159270e-03  4.83182743e-02
  -2.34273076e-02  1.43218860e-02  7.90818855e-02  9.26184654e-03
   4.78721783e-02  5.85481301e-02 -4.55177166e-02 -5.90635762e-02
   1.51462182e-02  3.48276645e-03  4.45047244e-02 -7.46452212e-02
  -1.56143010e-02  8.60907882e-03 -2.16122717e-03 -5.07450700e-02
  -4.34141159e-02  3.73580977e-02  3.57610807e-02 -6.11261614e-02
  -5.49412295e-02 -3.90836708e-02 -1.58283040e-02 -3.13485265e-02]
 [-2.17877105e-01  2.80462712e-01 -4.32548448e-02 -4.14770871e-01
  -6.76937476e-02  1.37006506e-01 -3.69767249e-01 -3.75912488e-01
   1.88031450e-01 -1.23385221e-01  4.70011681e-03 -3.70019764e-01
   4.97951433e-02  1.33936062e-01  3.22785407e-01 -7.78035298e-02
  -5.32950982e-02  2.95647591e-01  1.78725511e-01 -3.91756445e-01
   2.61128664e-01  1.39294624e-01 -1.38776392e-01  5.12306169e-02
   7.03840703e-03  2.88030863e-01 -3.00925642e-01 -7.60424659e-02
  -1.05708018e-02 -3.56429875e-01  4.38624978e-01 -1.02115870e-02
  -2.39689127e-01 -5.00166751e-02 -2.72373229e-01 -4.35033202e-01
   2.44804204e-01 -1.47131607e-02  2.91156359e-02  2.54049331e-01
   3.06261778e-01 -3.66281271e-02 -2.19641626e-02  3.04203272e-01
  -3.17260660e-02  3.11583668e-01 -2.58785456e-01 -5.59240356e-02
  -2.58889705e-01 -2.24939108e-01 -4.88923453e-02  3.10463518e-01
  -1.73948675e-01  6.30731657e-02  3.28558594e-01  2.98379809e-01
   6.44910857e-02  2.22405419e-01  2.68746823e-01 -1.35655567e-01
   1.21420488e-01 -2.72551104e-02 -3.61686379e-01 -4.69572395e-02
   7.91794732e-02  2.49464601e-01  7.17457905e-02  6.66225031e-02
   2.22291797e-02 -7.18042850e-02  3.39163929e-01  1.90243587e-01
   2.60667145e-01 -1.16482243e-01 -7.97129944e-02 -2.48774901e-01
   3.57343480e-02 -1.70520365e-01 -2.48026066e-02 -8.35236087e-02
  -9.71235242e-03  5.83291799e-03 -1.49282217e-02 -4.01994325e-02
   1.83072671e-01 -3.23382854e-01  3.72757673e-01  3.20599705e-01
   3.87812465e-01  4.85021621e-03 -4.62441444e-01  6.07537106e-02
  -2.14874357e-01  6.64933845e-02 -4.05324586e-02 -3.88322055e-01
   4.18087572e-01 -7.94599354e-02  1.11498833e-02 -2.16308504e-01
   2.23674476e-02 -1.53010683e-02  2.26540625e-01  6.33075461e-02
   4.18516770e-02  1.36593297e-01  5.58503047e-02 -1.67480737e-01
   4.00366008e-01  2.99727440e-01 -1.46472296e-02  7.72980079e-02
  -1.62756741e-02 -7.18791932e-02  2.61209369e-01  3.60659987e-01
  -3.52112770e-01 -3.43401134e-01  3.97925973e-02 -2.24428698e-01
  -3.79755378e-01 -3.79858226e-01 -3.78506631e-03  3.04092020e-01
  -4.13539857e-02  3.51732343e-01 -2.64997363e-01 -3.67596522e-02]
 [-2.51136392e-01  4.64745134e-01  4.58706990e-02 -3.76680642e-01
  -4.35682796e-02  1.49745554e-01 -3.49169284e-01 -4.11790729e-01
   1.51300237e-01 -1.14612237e-01 -7.91168213e-03 -3.50492597e-01
   3.55711579e-02  2.92256832e-01  3.54677469e-01 -4.92231324e-02
   7.27298334e-02  2.22853526e-01  2.54203111e-01 -3.57553482e-01
   3.54558617e-01  2.02923208e-01 -2.73071766e-01 -8.01844820e-02
  -7.20742345e-02  3.81859064e-01 -4.43285197e-01 -2.28485033e-01
  -3.78232971e-02 -3.60682368e-01  4.36547935e-01  3.05466428e-02
  -2.06976458e-01  1.17567554e-02 -3.27476352e-01 -3.48189026e-01
   4.57851216e-02 -5.96735477e-02 -4.41830605e-02  2.31241331e-01
   3.80798668e-01 -2.34747864e-02 -1.30789012e-01  2.90868580e-01
   6.09963015e-02  3.70865911e-01 -3.72180521e-01 -1.44248055e-02
  -2.38576427e-01 -4.26118188e-02 -1.02910921e-02  4.20840085e-01
  -2.15405524e-01  7.02094957e-02  4.10796523e-01  2.42650852e-01
   8.04491863e-02  2.43148327e-01  3.54967713e-01 -1.38767302e-01
   2.22449988e-01  5.84759489e-02 -3.03092211e-01 -3.22848074e-02
  -1.65861323e-02  3.84444594e-01  5.19757643e-02  6.57516494e-02
   2.16623396e-03  7.66527653e-03  3.46685231e-01  1.90584868e-01
   3.65371138e-01 -1.97137684e-01  4.15501520e-02 -2.94928581e-01
   7.03727975e-02 -5.50599359e-02  2.00238079e-03  1.38518149e-02
  -1.67005002e-01 -3.76589596e-02 -1.28889009e-02 -3.13332081e-02
   1.72495648e-01 -3.60118479e-01  3.66308749e-01  3.33827376e-01
   3.22328687e-01 -7.68996030e-02 -3.87974113e-01 -2.82489620e-02
  -2.43671671e-01 -4.80560251e-02 -4.96103205e-02 -3.46499413e-01
   3.77326697e-01 -1.84141099e-03  2.20056474e-02 -3.02674115e-01
  -2.16870345e-02  1.37375668e-03  2.94865727e-01  3.62896919e-02
   5.85090891e-02  1.36571601e-01  5.03479615e-02 -2.19376385e-01
   3.65624815e-01  3.22576195e-01  5.49636856e-02 -7.52369091e-02
  -6.99990541e-02  5.36831319e-02  2.84857035e-01  3.76783967e-01
  -2.68150091e-01 -3.77926558e-01 -3.62991877e-02 -2.49124393e-01
  -3.55642855e-01 -4.62288678e-01 -6.74269274e-02  3.33521008e-01
  -6.22153506e-02  3.84918332e-01 -3.32816154e-01 -2.54566669e-02]
 [-4.55307662e-02 -4.33786139e-02 -6.81982934e-02 -1.68661237e-01
  -1.19359165e-01 -1.39574602e-01  1.89062446e-01  1.93340093e-01
  -7.28935376e-02 -1.12151526e-01  5.56399897e-02  2.16818109e-01
  -1.07538700e-03  1.48885682e-01 -1.90805495e-01  9.42042680e-04
   3.79030257e-02 -2.06546783e-01 -7.41836429e-02  1.42858729e-01
   7.07693845e-02  2.09354043e-01  1.66880358e-02  2.83272639e-02
   2.29746848e-03  1.46533772e-01 -1.77357882e-01 -1.00841880e-01
   6.93664625e-02  5.75573109e-02  5.59222661e-02 -4.49518971e-02
   2.29376122e-01 -2.13216245e-03  1.52673889e-02  7.05432296e-02
  -2.04274386e-01  6.21609315e-02  7.82809481e-02 -9.26989987e-02
   1.53327495e-01  6.78776875e-02 -1.79451518e-02 -7.92159513e-02
   2.87306011e-02  4.12900783e-02 -5.17008547e-03  5.25678694e-03
   1.79341018e-01  1.47817627e-01 -3.42142694e-02  1.73735972e-02
   9.35445800e-02  7.02615306e-02 -8.59474316e-02 -6.46730810e-02
   5.74569330e-02  7.41967484e-02 -5.99726476e-02  5.53374402e-02
  -2.79685706e-02  1.85294747e-02  1.45651534e-01  3.15972418e-03
  -2.53857747e-02  2.13991761e-01 -9.70618427e-03 -1.32288486e-01
   6.64782897e-02  3.75537425e-02 -2.53779516e-02  1.35640934e-01
   2.58511421e-03 -1.51872709e-01 -4.92224135e-02  1.89340115e-01
  -6.22456521e-03  1.70503318e-01  1.26581714e-02  1.45935521e-01
  -1.53696850e-01 -6.40668795e-02  6.00357279e-02 -4.32554260e-02
  -7.97078758e-02  1.82357103e-01 -1.75552070e-01  7.56579265e-02
  -1.01824135e-01 -7.43585303e-02  4.21733819e-02  2.16198340e-02
  -3.42570525e-03  4.64882031e-02 -6.51312172e-02  1.53853372e-01
   1.06930628e-01 -3.64274196e-02 -1.54658034e-02  6.54931227e-03
   6.29254505e-02 -1.91721413e-02 -1.19127810e-03  7.62900189e-02
   6.84189424e-02 -5.71020208e-02 -7.86914453e-02 -8.51870552e-02
   1.82280689e-01 -1.03974722e-01  7.77855515e-03  2.14396417e-02
   3.35908234e-02  8.57771635e-02  1.26588896e-01  1.06224440e-01
   7.25542530e-02  6.92120418e-02 -1.61045715e-02 -1.18357442e-01
   1.93228647e-01 -1.30444869e-01  4.53980491e-02  1.00639172e-01
   4.07445058e-02 -1.12227634e-01  9.67989042e-02 -4.74981703e-02]
 [-1.39618665e-02  1.56003824e-02 -6.04624897e-02  3.24428305e-02
  -4.81541343e-02  2.82682106e-02 -8.72732897e-04  4.54465672e-02
  -4.21240851e-02 -3.14140655e-02  6.75126091e-02 -4.07183468e-02
  -3.08495201e-02  8.42503235e-02  2.97393352e-02 -2.02076565e-02
   4.14750427e-02 -9.54493061e-02  6.59650415e-02  2.70121545e-03
   2.24985853e-02  8.85685757e-02 -3.95170227e-02  1.75477266e-02
  -4.91800420e-02  6.41490147e-03 -8.40004720e-03 -5.59341442e-03
   5.63702211e-02  7.85258114e-02  1.63544547e-02 -2.91686170e-02
  -3.14158504e-03  3.51208299e-02 -1.98500901e-02 -1.40416226e-03
   4.87932153e-02  4.40750644e-02  4.88846935e-03 -8.45999271e-02
   3.95015031e-02  6.34357557e-02 -7.92719647e-02  7.25847930e-02
   4.56475094e-02  9.15783718e-02 -8.27381611e-02  2.01725215e-03
   6.99631274e-02  3.11577204e-03  1.68084428e-02  1.14533026e-02
  -3.32774185e-02 -3.16388495e-02  4.48276493e-04  4.24701609e-02
   6.95276037e-02  3.41908894e-02 -9.79679078e-02  9.93393660e-02
  -1.59593411e-02 -7.00682402e-04  7.47631788e-02 -5.06283268e-02
  -1.87606663e-02 -5.14789149e-02 -4.28479090e-02 -3.65959927e-02
   1.88316926e-02 -1.36052817e-03  7.95205534e-02 -9.86748561e-03
   1.01450747e-02  3.12720574e-02 -3.89166065e-02 -2.50702519e-02
   1.53788617e-02 -5.07204942e-02 -3.05960923e-02  9.47469193e-03
  -5.08261546e-02  5.06782010e-02  4.61036488e-02 -5.75412661e-02
  -4.39085066e-02 -1.65457483e-02 -7.97738284e-02  2.30447445e-02
  -1.09896846e-02 -3.47686373e-02  2.66830679e-02  3.97548825e-03
  -6.81232736e-02  3.19919512e-02 -9.89138335e-03  6.08143909e-03
   2.31696609e-02  5.07961288e-02 -5.30261025e-02 -4.64702398e-02
   2.84934193e-02  5.16809151e-03  5.16150594e-02  5.88969514e-02
  -4.59882170e-02  5.00699244e-02 -3.22728381e-02  1.83675606e-02
  -4.26896513e-02 -6.58658072e-02  2.47728429e-03  2.88931280e-03
   1.49413124e-02  8.36719722e-02  8.90263319e-02  9.29642748e-03
  -5.41383997e-02  7.16684461e-02  5.75617030e-02 -6.35803714e-02
  -5.62521629e-02 -8.79153162e-02  6.40670583e-02  2.00478844e-02
  -4.29955572e-02  7.44100148e-03  2.61596646e-02  1.96895823e-02]
 [-7.52544552e-02 -3.23932767e-02 -6.44854009e-02  6.21927604e-02
   7.70251974e-02  6.86913654e-02 -5.22188991e-02 -5.82955182e-02
   4.66193035e-02  6.04263917e-02 -5.48571348e-03  1.63536072e-02
  -2.93584578e-02 -7.60861486e-03  1.54379755e-02  1.25104859e-02
   2.18744203e-02 -4.79069240e-02  1.10236630e-02  8.01966265e-02
  -5.94399385e-02 -3.56285274e-03 -3.17528844e-03  8.03331509e-02
  -6.82878718e-02 -6.77119195e-03 -4.12531570e-02 -2.27805227e-03
   5.84635511e-02  5.15903756e-02 -7.05813169e-02 -5.34171611e-02
  -1.97753645e-02  2.68935785e-02  5.50775602e-02  7.83689991e-02
   6.44798577e-03  5.01969829e-02 -9.15722549e-03  2.26372778e-02
  -5.35067916e-02 -2.70022415e-02 -7.45564401e-02 -3.00537497e-02
   8.00962225e-02  5.67154810e-02  7.98237398e-02  2.46937498e-02
   2.88251489e-02 -1.82361528e-02 -7.42550716e-02 -5.03003895e-02
   4.15278599e-02  3.52539942e-02  6.35508820e-02 -7.83241540e-02
  -7.76098594e-02 -5.27019538e-02 -3.24404798e-02 -1.95935257e-02
  -3.12210657e-02 -1.67847946e-02  7.61575326e-02 -2.07118690e-03
  -2.25633271e-02 -6.92547411e-02 -1.49061531e-03 -3.65249813e-02
  -2.09884346e-03 -1.25078931e-02 -4.07873765e-02 -2.79177725e-03
   4.47989479e-02  9.49839503e-03 -3.78993563e-02  3.18544731e-02
   6.85923174e-02  4.84244898e-02  4.88735959e-02 -4.22395021e-03
  -6.84140474e-02  6.63672462e-02  5.86894378e-02 -7.61786848e-02
   3.24949026e-02  5.67683652e-02  5.32856360e-02  6.53278157e-02
   2.93370932e-02 -2.84125470e-02  8.05747882e-02  3.90868634e-02
   4.43528518e-02 -2.47539319e-02  7.78773054e-02  4.04918268e-02
   6.28321990e-02 -7.29337037e-02  3.57957929e-02  2.90884003e-02
   4.56415638e-02 -1.93832032e-02 -3.96046452e-02 -3.93965840e-02
  -4.30141613e-02  7.61255696e-02 -1.69444680e-02 -1.32968202e-02
  -7.07614273e-02 -5.71803749e-02  2.23304555e-02 -6.99507892e-02
   2.92289108e-02 -1.97752118e-02  2.88759172e-03 -7.57225752e-02
  -4.95442972e-02 -1.53975412e-02  3.28877941e-02  7.54708052e-03
   8.22079182e-03  4.26233113e-02 -6.56776875e-03  5.82563058e-02
  -9.41382349e-03 -4.26028371e-02  3.62767279e-03 -7.26100951e-02]
 [-6.51896819e-02  3.90422866e-02 -2.04889663e-02 -2.55190134e-02
   6.31314144e-02 -5.93314096e-02  2.80296654e-02 -1.38507709e-02
  -4.00405489e-02 -6.13912307e-02 -4.64448333e-02  1.79037303e-02
   6.87551722e-02  2.54490301e-02  5.67801371e-02  2.43759155e-03
  -4.33419645e-02  2.36896724e-02 -2.36903280e-02 -1.12960637e-02
  -2.16792971e-02  7.67233893e-02 -3.64767909e-02 -1.54627338e-02
   5.76219633e-02  3.07683572e-02  7.26898015e-03  3.00276801e-02
   2.06425115e-02 -6.28707111e-02 -5.76160476e-02 -7.31845573e-02
  -2.89620645e-02 -2.78979726e-02  2.65941843e-02  5.25061712e-02
  -6.49087876e-02 -8.00132230e-02  6.37530908e-02  4.91017029e-02
  -3.86197641e-02  7.77186677e-02 -2.16386095e-02  7.03396574e-02
   1.86572224e-03 -4.63907830e-02 -7.90785998e-02 -5.47498204e-02
  -6.92704841e-02  6.20259866e-02  4.13016155e-02  6.99309930e-02
   5.95484897e-02 -1.78382844e-02 -5.05214036e-02 -4.78863120e-02
  -6.29264191e-02  3.93883064e-02 -4.63657975e-02  2.78134644e-02
   5.34951687e-03 -6.03418574e-02 -9.54406708e-03 -4.32680734e-02
   6.49258494e-03  5.76221123e-02  7.55501762e-02  7.94033334e-02
   3.34855616e-02  7.93308541e-02  1.84779018e-02 -5.85998595e-03
   1.79467350e-02  1.67806447e-03 -6.03642687e-02 -4.32708561e-02
   9.68773663e-03 -4.44473028e-02  4.04665545e-02 -6.69105574e-02
  -2.56118178e-03 -4.45580520e-02 -3.50460857e-02 -4.91248816e-03
  -1.94512531e-02  1.06480569e-02 -3.90247256e-03  5.69561496e-02
  -7.05142841e-02 -3.43921594e-02  3.11832950e-02 -8.82754475e-03
  -6.54581487e-02 -3.51098813e-02  7.34086707e-02 -1.72618702e-02
  -4.40495536e-02 -1.48821622e-03  4.15380076e-02 -1.33987516e-02
  -3.71552370e-02  6.48668408e-03  5.05169556e-02  6.58348277e-02
  -2.53415853e-02 -5.18336222e-02 -7.02264905e-03  7.56343380e-02
   1.11233145e-02 -6.47932068e-02  7.09038004e-02 -1.21003985e-02
  -2.39255279e-03 -1.85659528e-03  5.47256693e-02 -4.90936190e-02
   5.54587170e-02 -3.95921133e-02 -4.50116917e-02 -6.61160797e-02
   5.19128963e-02  2.85314396e-02  2.91100815e-02  8.02915320e-02
  -5.09458035e-02  3.68634239e-02  6.90265000e-03 -4.59915400e-03]
 [ 7.04044029e-02 -8.36899877e-03  5.19433245e-02  3.71526852e-02
   4.63664010e-02  4.41116169e-02  5.45728877e-02 -4.32469957e-02
   2.93895602e-03 -7.22186491e-02 -6.01397529e-02  6.11565784e-02
  -4.44892272e-02  2.46115848e-02  5.88201657e-02 -6.28351420e-03
   2.42086127e-02 -5.73893040e-02 -6.72463626e-02  1.05752870e-02
  -4.62031253e-02  7.10595176e-02 -1.26185492e-02  6.64323196e-02
   2.76020616e-02  6.75119981e-02 -7.10820407e-02  6.78074360e-03
  -3.69282067e-03  7.37076178e-02  6.38480410e-02 -6.24056906e-03
  -1.79707110e-02  1.63665414e-02 -2.01714709e-02 -2.52146088e-02
  -4.60193530e-02  9.93139297e-03  3.90948281e-02  7.94503018e-02
  -4.58757281e-02 -3.71645391e-03 -6.30948767e-02 -6.77090138e-02
  -3.14677469e-02 -4.28252071e-02  1.96057856e-02  3.85913774e-02
   7.12675527e-02  7.03294948e-02  6.13861457e-02  9.83043015e-03
  -7.17033967e-02  6.83865473e-02 -7.50459284e-02  6.02035150e-02
  -3.13203894e-02 -6.60952926e-02  6.49036840e-02  1.09894350e-02
   4.80963215e-02  7.99670815e-05  4.40550074e-02 -3.19914259e-02
  -7.35317171e-02 -4.99689281e-02 -4.71938252e-02  6.66534677e-02
  -5.39838299e-02 -2.51143798e-02  2.69672424e-02 -7.31469095e-02
  -1.10252500e-02  9.33457911e-03 -7.05122352e-02  5.86512908e-02
   6.47473559e-02  3.09494957e-02 -6.74479082e-02  3.79020199e-02
  -5.92352822e-02  1.18746832e-02 -5.45272976e-02 -1.73584372e-03
   2.02046931e-02  5.35116121e-02 -1.07651651e-02  5.66849634e-02
   4.29136977e-02 -1.68801844e-03 -7.68867955e-02  3.24833915e-02
  -7.40813687e-02 -6.58487827e-02  5.78105375e-02 -7.82658681e-02
  -6.81070760e-02 -1.58378184e-02 -3.46149765e-02 -5.51582053e-02
   3.34413722e-02  5.80358431e-02 -3.33848484e-02 -5.36289923e-02
  -4.46026102e-02  7.57021084e-02 -3.70581970e-02  5.53170070e-02
  -7.08840191e-02 -6.84013814e-02 -6.07325099e-02  6.18349835e-02
   2.60727853e-02  3.51055712e-03 -9.07803327e-03 -2.75300406e-02
   6.39376268e-02 -7.91489705e-02  4.60729823e-02 -6.28833473e-03
   1.46527067e-02 -4.03806567e-03 -2.33276375e-02 -5.97392172e-02
  -2.84776762e-02 -3.17389667e-02 -2.92207114e-02  4.41736802e-02]
 [-1.58793181e-02 -5.66135682e-02  4.75733355e-02  5.90998009e-02
  -3.23756598e-02  3.53594869e-03 -7.90926591e-02 -3.45852524e-02
  -2.74399854e-02  7.51812384e-02 -2.23641619e-02  6.27498105e-02
   7.85792097e-02  7.92962685e-02  3.59783471e-02 -5.30897640e-02
   2.29292065e-02 -6.25470281e-03 -5.79565950e-02 -5.44008017e-02
   4.53512296e-02  4.37025055e-02  5.81734106e-02  2.38603130e-02
  -1.91183276e-02  4.37171683e-02 -4.27107513e-03  4.42707762e-02
   2.40880921e-02  5.08088097e-02 -3.99612635e-03  2.56559476e-02
  -1.86990127e-02  6.05368838e-02 -5.91674447e-02  1.63379237e-02
   1.94127113e-02 -2.12694034e-02 -2.53343508e-02  3.72595489e-02
   6.84143230e-02  2.96859145e-02 -2.62929127e-02 -5.79342768e-02
   4.23847139e-03 -7.92231932e-02 -1.57002062e-02 -3.32690105e-02
   2.40422264e-02  6.64215907e-02 -5.45959659e-02 -4.62623574e-02
  -3.14532816e-02  5.88439927e-02 -1.68437585e-02  5.08939549e-02
  -6.38719276e-02  3.54887024e-02 -7.54253641e-02  4.80885804e-03
   2.70907506e-02 -6.66031167e-02 -7.68903941e-02  2.38107443e-02
   1.16392970e-02  2.82516927e-02  4.10274789e-02 -6.40365928e-02
   3.73431444e-02  4.72273454e-02  2.65340656e-02 -7.89559186e-02
   1.74414665e-02  6.85868934e-02 -1.68598443e-02  1.20073557e-04
  -4.65776697e-02  1.98739767e-03  1.39511153e-02  6.00932464e-02
  -2.14617029e-02 -4.32152972e-02  4.50936332e-02  4.38463241e-02
   4.54675928e-02 -8.34988803e-03 -4.97431308e-03 -2.52441391e-02
  -7.12278932e-02 -2.05786787e-02 -6.27739802e-02 -1.20146573e-02
  -1.87561586e-02  2.06536725e-02  3.80484760e-03 -6.99541718e-03
  -2.35864036e-02 -3.44244540e-02 -7.59010091e-02 -5.58256693e-02
   3.47671509e-02  7.61983171e-02 -7.06479922e-02  2.58028433e-02
  -1.16092637e-02  5.15023619e-03  1.75190270e-02  2.28511244e-02
   5.01189306e-02 -2.64114775e-02 -4.03131023e-02  1.53905824e-02
   7.08973333e-02  7.66761228e-02  6.30222484e-02  9.67628509e-03
   2.67912596e-02  5.02791181e-02  3.87030169e-02 -6.02715239e-02
  -4.06598598e-02 -2.51440443e-02 -5.45651019e-02 -3.27643976e-02
   7.66655132e-02 -5.61012775e-02 -8.01659748e-02  3.16990688e-02]
 [-1.36736110e-02 -4.35433909e-02 -6.11627847e-03  9.61484760e-03
   7.73323104e-02 -3.57320160e-02 -2.85811946e-02 -2.58752815e-02
   2.08764300e-02 -6.38951957e-02 -3.99655551e-02 -1.43750459e-02
  -6.12661317e-02 -5.41966707e-02 -3.59863043e-04 -7.70568624e-02
   2.56802216e-02 -3.72521207e-02 -3.47478315e-02  1.33199468e-02
  -3.91162746e-02 -1.65404156e-02 -2.01631561e-02  6.38765916e-02
  -3.85898687e-02 -4.43865620e-02  7.56815448e-02 -1.65630206e-02
   2.43308917e-02 -3.71014774e-02 -4.96251918e-02  3.61221656e-02
   1.37272179e-02 -4.19882648e-02 -8.55744630e-03  5.88166639e-02
  -6.68096468e-02 -7.39344358e-02  7.07903728e-02  7.93895125e-03
   6.64014593e-02  1.34248808e-02  6.63259998e-02  3.53566036e-02
   1.48948431e-02 -4.30774540e-02 -3.02492790e-02  5.36102131e-02
   2.15794519e-02  6.74380884e-02 -8.06101561e-02 -3.46117094e-02
   4.11494076e-03  2.68092453e-02  2.46403962e-02 -4.28004563e-03
  -3.16360071e-02  6.61215559e-02  3.76050919e-03 -5.58893494e-02
  -3.53606418e-02  3.02505717e-02  3.67516279e-02  6.20172694e-02
  -6.36348426e-02  3.54303569e-02  4.55781147e-02 -4.66139838e-02
   1.97288170e-02  6.46226034e-02  3.53904217e-02  1.73901021e-02
   2.77402848e-02  1.73753873e-02  6.14097640e-02  2.64655650e-02
   1.31152123e-02 -5.72067723e-02  5.58569506e-02 -6.63653761e-03
  -6.69720024e-03  5.05022481e-02 -3.80390733e-02  2.35687271e-02
  -5.31393290e-02  1.85216814e-02  6.46527857e-03  8.71486217e-03
   2.05323845e-02 -2.47048512e-02  5.57327047e-02  4.63227853e-02
  -2.55947821e-02  3.37000787e-02 -1.48615390e-02  3.45931202e-03
  -6.33241534e-02  6.00063130e-02 -2.76211239e-02  7.95559511e-02
   6.09101877e-02  6.01904765e-02 -2.28016749e-02 -4.48649712e-02
   6.84757605e-02  4.47177067e-02  1.54702738e-02  3.56635749e-02
   3.75317708e-02 -1.97115093e-02  6.89348653e-02  3.47367078e-02
  -7.46114329e-02 -5.74140772e-02 -2.97340080e-02 -1.12207010e-02
  -6.19340017e-02  7.56743625e-02  1.80571377e-02 -2.24019103e-02
   1.00131556e-02 -6.69351369e-02 -7.76031837e-02 -3.80947292e-02
  -2.96790488e-02 -5.95017448e-02 -9.27339494e-03 -8.03123042e-02]
 [-6.00001290e-02  5.57680652e-02  1.25893131e-02  4.67779115e-02
   6.18684366e-02 -8.01147893e-02 -3.95348668e-03  1.15480423e-02
   2.54405811e-02  6.35369942e-02 -5.60047626e-02  4.88093719e-02
   3.92260402e-02  3.34090814e-02  1.35494173e-02 -7.75147900e-02
  -7.06574097e-02  3.67093161e-02 -2.85104662e-03 -5.82896397e-02
  -5.57816923e-02  7.80879185e-02 -2.88845338e-02 -5.64772338e-02
   3.23485062e-02  1.42529458e-02 -2.12483630e-02  1.95278898e-02
   7.81189725e-02  2.95027792e-02 -2.44305208e-02 -8.03044587e-02
   6.71573505e-02  1.15336701e-02 -2.99866647e-02 -8.33020359e-03
   7.04104826e-02 -3.49528566e-02 -5.24988435e-02  3.27131152e-02
   1.47855431e-02 -1.81588382e-02 -4.43226099e-02 -4.16954830e-02
   5.69040552e-02 -2.68271901e-02  3.93353999e-02  2.29302719e-02
   2.62882337e-02  8.64615291e-03 -6.98368698e-02  6.55294880e-02
   3.07290033e-02 -8.02440420e-02 -3.30276713e-02 -5.24386242e-02
  -6.23456165e-02 -6.31964430e-02 -7.94437453e-02 -7.97514990e-02
  -7.76545703e-02  5.81418499e-02  6.68537542e-02  6.33007959e-02
  -5.58361486e-02  4.87465337e-02 -5.88094145e-02 -6.22469485e-02
   1.81052089e-02 -3.29670236e-02 -6.84705600e-02  1.52734891e-02
  -2.97951549e-02  1.73513889e-02  1.00004151e-02 -2.01740228e-02
  -6.48663193e-02 -8.21593404e-03 -1.45611241e-02 -7.17441067e-02
  -2.22789608e-02 -1.92980357e-02  6.40711859e-02  1.85813978e-02
   5.66751435e-02 -3.76209617e-02 -5.53001314e-02  7.75536075e-02
   3.38514447e-02  6.79416284e-02 -6.89209104e-02  3.44492495e-03
  -7.83802569e-02 -6.98661655e-02 -4.09056470e-02  3.86933982e-03
  -6.87222257e-02 -2.25682221e-02  7.44050965e-02  6.10792115e-02
   4.57344428e-02 -2.82266662e-02 -7.89420754e-02 -7.64174759e-02
  -7.71960765e-02 -3.05439159e-02  7.85430595e-02 -5.48318736e-02
  -1.43208653e-02 -1.74710304e-02  3.14893872e-02  3.33097205e-02
   4.45114896e-02  2.61937454e-02 -3.67306173e-03 -3.60720009e-02
  -6.21296242e-02 -1.69821978e-02  7.56686255e-02 -1.48504227e-02
  -2.00940408e-02  4.67270613e-04 -1.80192366e-02  2.48619393e-02
   6.19137958e-02  1.61874741e-02  5.84296063e-02  6.47795722e-02]
 [ 6.29582480e-02  1.17535442e-02  1.58101618e-02 -2.79208496e-02
  -4.14884090e-03  1.73989385e-02 -3.37289274e-03  4.21255305e-02
  -2.62595154e-02 -5.30804992e-02 -3.02945822e-03  8.08344409e-02
   3.63362208e-02 -2.10460275e-02  1.09017566e-02 -6.42273650e-02
   6.39730319e-02  2.61229277e-02 -7.28326365e-02  7.32463822e-02
  -1.86774880e-03 -6.47137612e-02 -3.01596820e-02  7.59482011e-02
  -2.41653733e-02  4.16705161e-02  2.50495598e-02  4.62739840e-02
   4.06283736e-02  1.34610012e-02  4.47124243e-04 -4.70001698e-02
  -2.60844082e-02 -7.24056512e-02 -4.72029932e-02 -5.84191680e-02
  -2.33611315e-02  7.72418454e-02 -2.81400122e-02  6.00262061e-02
   2.81514600e-02  6.44118562e-02 -4.39859182e-03  1.02093071e-02
   3.86615768e-02 -6.73040897e-02  7.00010732e-02  6.49364218e-02
  -9.34049487e-03 -1.63439736e-02  2.06850022e-02  5.34338877e-02
   5.82900271e-02  6.89924136e-02 -7.86389858e-02 -4.29908372e-02
  -2.02828199e-02  5.20075932e-02 -6.86758533e-02 -7.28215203e-02
   5.78208044e-02  3.24925780e-02  6.23437837e-02 -6.91578612e-02
  -4.43537235e-02  6.16931245e-02  5.32711968e-02  4.93499115e-02
  -2.72135697e-02 -6.28525466e-02 -5.83160557e-02  4.85561118e-02
  -3.95984203e-03  4.54119816e-02 -7.34732822e-02  7.16124550e-02
   3.35313901e-02  1.30838901e-03  2.51150578e-02  5.16055450e-02
  -4.96411435e-02  3.83906215e-02 -6.27625659e-02 -7.66088665e-02
   2.71774456e-02  4.02771160e-02 -7.30980784e-02  1.04667768e-02
  -1.74774304e-02  1.04039907e-03 -5.87803498e-02  4.09094244e-03
  -5.86956069e-02 -6.81731179e-02 -3.86925936e-02 -6.49087727e-02
   1.25790238e-02 -1.63384825e-02  4.65815291e-02  7.91925862e-02
   1.53812766e-02 -6.06079549e-02 -4.31696586e-02 -1.70921534e-02
   3.02833319e-02  4.99953106e-02  6.24844655e-02 -2.77073942e-02
   3.31732854e-02 -5.33247218e-02 -4.70369533e-02  2.62225196e-02
  -3.92520092e-02 -4.34645489e-02 -3.95023637e-02 -3.87497954e-02
   6.71110824e-02  4.29306999e-02  7.36331195e-03  3.35325524e-02
   5.52391931e-02  2.37542167e-02  4.02034372e-02 -5.12396097e-02
  -4.83267196e-02  4.01584953e-02  3.64541486e-02  8.08435455e-02]
 [ 6.81392923e-02 -1.37869865e-02 -6.30218536e-02 -4.47845645e-02
  -3.35196368e-02 -2.20474601e-02  3.28544974e-02  4.90332022e-02
   1.84340179e-02 -7.64546618e-02  4.98663560e-02  1.71420500e-02
  -6.18694499e-02  7.37291947e-02 -5.21781966e-02 -5.50421588e-02
   6.73453137e-02  7.27860853e-02  1.92502365e-02  3.73153761e-02
   1.39926150e-02 -1.87694654e-02 -8.04760456e-02  3.72469202e-02
  -3.20509709e-02 -2.49080583e-02  2.86851078e-03  6.14556596e-02
  -7.39115849e-02  6.86269477e-02 -1.57696307e-02  8.01065564e-03
   8.71147960e-03  5.59612885e-02 -6.99969679e-02  1.36563629e-02
   6.51916191e-02 -1.30204409e-02 -8.09911788e-02  6.47070333e-02
   1.52155682e-02 -7.17669427e-02 -9.52902436e-03 -6.33699670e-02
  -4.27233726e-02  6.77705929e-02 -7.48862326e-02  1.95865035e-02
   1.01943016e-02 -1.57413930e-02 -5.85508049e-02 -4.93951216e-02
  -5.05823568e-02  1.04224160e-02  2.73990631e-03  1.91065893e-02
   4.92993966e-02 -3.55319418e-02 -2.62200646e-02 -5.69215305e-02
   2.76867822e-02 -4.18055356e-02  6.27745613e-02  1.52878538e-02
   7.19669387e-02 -7.03059584e-02  2.22400874e-02  7.41681084e-02
   6.94424435e-02  9.08327848e-03 -5.49737215e-02 -7.65530020e-02
   6.12166896e-02 -7.59004802e-03  4.47072834e-03  6.93669841e-02
  -6.09414205e-02 -2.89585441e-03 -4.36598286e-02 -5.30505255e-02
   2.25066468e-02 -2.88741514e-02 -1.50051713e-03 -3.14715505e-03
  -2.01345719e-02 -1.13664120e-02 -6.52404055e-02 -6.53409064e-02
  -2.86023915e-02 -1.86366886e-02 -6.98023438e-02 -3.41178067e-02
  -4.35185432e-02  6.39099553e-02  3.70960012e-02  3.09526920e-03
   1.48002207e-02 -7.48309270e-02 -6.68145567e-02  5.26131466e-02
   2.44623721e-02  7.73524120e-02 -5.98580316e-02 -9.29275155e-03
  -4.33931537e-02 -6.46107495e-02  7.27340207e-02  5.61941639e-02
   6.30006269e-02  7.50771984e-02 -3.29720341e-02 -3.97761166e-02
   3.76272649e-02 -3.02275270e-03  5.43466434e-02 -5.45551255e-02
  -1.46686211e-02 -1.07641071e-02 -7.23427385e-02  7.14244470e-02
   4.73256335e-02  5.61248884e-02 -6.54921681e-02  2.76434198e-02
   2.94687077e-02  7.09865913e-02 -3.36711518e-02  3.88542190e-02]
 [ 8.03143308e-02  7.79145956e-03  4.04713899e-02  5.60001060e-02
   9.14531201e-03  4.95142862e-02  4.16168496e-02 -2.28284374e-02
  -2.87204497e-02  1.25529766e-02 -6.49239123e-02 -3.78057770e-02
   3.59560475e-02  2.48146951e-02 -8.89082253e-03 -3.03386226e-02
   6.80829063e-02 -1.78353637e-02 -4.77092862e-02 -3.74822095e-02
   6.99359402e-02 -1.16435885e-02 -5.65848500e-02 -2.78256685e-02
   1.94551051e-03 -1.84192881e-02 -7.31383041e-02  9.68783349e-03
  -7.31083676e-02 -1.44893751e-02 -8.20308924e-05 -2.93050706e-03
   7.53289238e-02  6.04620650e-02  7.70111382e-03 -3.66598479e-02
  -3.02459113e-02 -1.77630037e-02  5.53135350e-02  7.85768107e-02
  -1.92144588e-02  6.38224408e-02  7.65557215e-02 -1.24101043e-02
   7.87075236e-02  2.52865255e-02  3.61600295e-02  3.47959474e-02
  -7.63332844e-03 -6.93529472e-02 -3.43457498e-02 -1.32384151e-03
   9.35066491e-03  5.04524633e-02  2.71403044e-03  3.75145823e-02
   7.22463056e-02  6.32317737e-02  1.41322166e-02  2.97314003e-02
   3.59607860e-02 -3.70821171e-02  1.24357641e-02  4.67324480e-02
   1.62917450e-02  1.03962347e-02  6.77612424e-03 -2.87556462e-02
  -4.55129594e-02  2.40721405e-02 -1.09843090e-02 -6.30031526e-02
  -6.77843168e-02 -3.70182060e-02  2.80910060e-02 -8.08587670e-02
   4.42947969e-02  1.79627091e-02 -7.69500509e-02  6.62761107e-02
   6.02985397e-02 -1.06976181e-02 -2.00624801e-02  5.44615611e-02
  -5.31787388e-02 -6.24266788e-02  6.09100237e-02  5.45238182e-02
  -4.40003946e-02 -6.20850697e-02 -9.77955014e-03  6.03246912e-02
  -7.53315166e-02  7.21026435e-02  3.80104110e-02  3.41396630e-02
   5.20513579e-02  4.79135588e-02  2.71203220e-02 -3.14023420e-02
  -3.53979059e-02 -5.03265858e-03 -2.67764665e-02 -5.77027202e-02
   5.32754436e-02 -3.65118310e-02 -2.66434774e-02  2.10702941e-02
  -7.28047341e-02 -5.95235601e-02 -3.04813944e-02  3.87386158e-02
   4.02020216e-02  1.21424422e-02 -6.37165084e-02  2.02908888e-02
  -8.77365470e-03 -3.94995399e-02 -3.73887643e-02  2.81676874e-02
   5.90191707e-02  4.27629575e-02  1.61249936e-02 -3.64230499e-02
   7.08278194e-02 -2.94360816e-02  3.60659510e-03 -1.88735239e-02]
 [ 1.92754865e-02  3.92146707e-02  1.62887275e-02 -4.34316695e-03
  -5.36404550e-04  4.84144017e-02  1.27192065e-02 -6.87610358e-02
  -3.03865224e-02  6.19721487e-02  8.08157548e-02  7.37252757e-02
   5.88651672e-02 -4.80977148e-02  1.25115737e-02  3.80331576e-02
   3.96466255e-03  3.54684368e-02 -7.52346665e-02 -1.60642490e-02
   5.28344736e-02 -5.30082136e-02 -7.26422518e-02  6.45864978e-02
   3.98720726e-02 -7.90336803e-02  2.10309848e-02 -4.54533957e-02
  -1.90522671e-02 -5.48104644e-02 -2.12185420e-02 -5.06978258e-02
   5.78056350e-02 -4.80029583e-02 -6.62483126e-02 -1.38435513e-03
  -1.93938799e-02 -7.20486268e-02  1.70852542e-02 -1.07141882e-02
   2.27039605e-02 -3.19856629e-02  4.93236259e-02  1.36580020e-02
   5.23625314e-03  7.91394934e-02 -1.62731633e-02  2.61397660e-03
  -7.38734081e-02 -6.97526485e-02  6.25529066e-02  5.98853752e-02
   1.24543905e-02  3.59624103e-02 -4.23825160e-02  3.78845409e-02
  -5.74006774e-02 -2.45130919e-02  6.01197705e-02 -1.38117447e-02
  -7.10564330e-02  7.91263580e-03  7.32318982e-02 -6.36235625e-03
   1.84446350e-02  3.64883915e-02  4.47283909e-02 -4.78617325e-02
  -3.07650119e-02 -2.05929093e-02 -7.25234747e-02 -4.28702831e-02
   4.86682579e-02  4.12343964e-02 -3.86024937e-02  4.56289276e-02
   4.71577272e-02  4.63997796e-02 -1.00739002e-02  5.60677424e-02
   6.92744628e-02 -1.91443935e-02 -4.57004830e-02 -4.37052138e-02
  -3.28661166e-02  6.50390461e-02  2.48132646e-02 -4.73499820e-02
   3.53432745e-02 -4.94996645e-02 -3.14389132e-02  5.00823334e-02
  -2.40740366e-02 -1.31231621e-02  6.87376782e-02  4.94495854e-02
  -4.83942106e-02 -2.45042183e-02  5.26298955e-02  2.54132748e-02
  -5.37395887e-02 -3.55621092e-02  3.39414850e-02  8.59417021e-04
  -2.05956958e-02  1.90095678e-02 -1.29440129e-02 -4.29270230e-02
  -5.33198118e-02 -4.45757657e-02 -8.50243121e-03 -2.46277452e-03
   8.05930272e-02 -2.03876197e-03 -2.34239809e-02 -1.23233348e-03
  -6.37179613e-02 -1.75243318e-02 -7.73679912e-02  7.62133375e-02
   1.63019150e-02 -3.62464152e-02 -3.24538648e-02 -6.90009668e-02
   4.31668535e-02 -1.67964175e-02 -1.86100602e-02  3.55884507e-02]
 [-6.72407597e-02  2.13337392e-02  6.35696277e-02 -6.36402741e-02
  -5.84510341e-02 -7.19857588e-02 -1.86741054e-02  3.72801721e-03
  -1.02903321e-02  4.99453172e-02  5.10952845e-02 -8.01952928e-02
  -1.44300684e-02 -7.45689869e-02  4.78392616e-02  1.92733109e-03
   7.64597133e-02 -6.94102272e-02 -7.06495941e-02 -6.92265332e-02
   1.23166963e-02  6.93631694e-02 -6.04360327e-02 -6.47019669e-02
   3.87308076e-02  2.24084258e-02  4.18277532e-02 -1.13721415e-02
   2.98024118e-02 -3.75238247e-02 -8.07238817e-02  2.82379985e-02
   6.18629530e-02  9.53014940e-03  2.81087235e-02 -3.24138142e-02
  -3.34795676e-02  2.70386562e-02  4.40866277e-02  2.44768560e-02
   3.50442082e-02 -5.50336316e-02 -2.87196189e-02 -7.53441826e-02
  -7.74888545e-02 -6.59279525e-03  1.95606500e-02  2.45888233e-02
  -7.57651925e-02 -3.27792317e-02 -5.01140803e-02 -2.53766440e-02
  -5.89589551e-02 -2.11392939e-02  6.93819001e-02  9.48980451e-03
   2.91117430e-02 -1.27818584e-02 -4.31857295e-02 -3.93073373e-02
  -5.53724915e-03 -3.32311876e-02  7.14122877e-02  3.51747200e-02
   1.70347393e-02  9.62916017e-03  7.79798552e-02 -7.03170970e-02
   4.31369618e-02 -8.09492171e-02 -7.73023218e-02  2.05862373e-02
   1.02800280e-02  1.28569156e-02  2.08604932e-02  7.85661414e-02
  -3.73223200e-02  1.01787299e-02  6.59777969e-03 -1.51866004e-02
  -6.41911253e-02 -2.07511336e-03  5.38071617e-02  4.01299298e-02
   5.79064116e-02  1.51142702e-02  3.39186192e-03 -5.50180450e-02
  -6.98411614e-02  5.45398146e-03  9.38922912e-03 -2.83774063e-02
   7.32189193e-02 -6.67638183e-02 -1.22673661e-02  7.26228729e-02
   4.86643091e-02 -8.01895559e-03  2.97635198e-02 -5.92661276e-02
  -5.81662208e-02  3.82541940e-02 -6.14233539e-02  7.46824816e-02
  -3.07078846e-02  3.42848301e-02 -4.91408035e-02  1.57692432e-02
  -2.16893144e-02  1.63154900e-02 -4.02011350e-02 -4.47788090e-03
  -3.97985876e-02 -1.49272159e-02  7.59485886e-02  8.52540880e-03
  -3.54832076e-02  2.25713700e-02  7.60162100e-02  5.29365614e-02
  -1.13952681e-02 -2.85921991e-02 -2.80529894e-02  7.81964287e-02
  -2.25263350e-02 -7.66650066e-02  4.75233570e-02 -4.17249352e-02]
 [ 2.37276852e-02  4.91768494e-02  1.29419863e-02  6.32973835e-02
   2.12045982e-02  7.19941184e-02  4.39627245e-02 -7.10711554e-02
  -3.46729904e-02 -2.89182998e-02 -2.63610408e-02  7.90869966e-02
   5.51424399e-02  3.51397246e-02  4.01034728e-02 -1.01824105e-03
   2.79900655e-02 -5.58333471e-02  2.31150538e-02 -4.15376611e-02
   1.78372785e-02 -7.47112557e-02  3.37663740e-02 -1.76685750e-02
  -3.82522792e-02  3.91073972e-02  3.00426707e-02 -3.27158570e-02
  -4.88141440e-02  3.23798358e-02 -8.02356154e-02  3.85001153e-02
  -1.12074912e-02  2.34712064e-02  3.99705246e-02 -8.03410411e-02
   7.18207434e-02  7.24891648e-02 -3.29868086e-02  5.95131889e-02
  -3.00814807e-02  7.60483220e-02  6.11849353e-02  3.37563530e-02
  -7.43007287e-02  2.63883844e-02  6.58253059e-02 -6.61100447e-02
   1.02350116e-02  3.11585665e-02 -8.86803865e-03  3.16900611e-02
   7.07910135e-02  3.57896090e-04 -6.91076219e-02 -3.23636085e-03
   3.60943601e-02  2.70807967e-02  4.69624177e-02 -1.30715892e-02
  -3.97512093e-02 -6.44090921e-02 -5.43121397e-02 -2.21804902e-02
   4.42323163e-02 -1.45646185e-02  4.21308875e-02 -5.31391129e-02
  -2.85173021e-02  2.37347111e-02 -1.22106671e-02 -3.90706956e-02
  -3.95581760e-02  2.26510093e-02 -7.05235675e-02 -3.94246839e-02
  -6.57407641e-02 -3.72065231e-02  4.89462167e-03 -2.88908966e-02
  -8.04981664e-02  7.62105361e-02  7.16633275e-02 -5.76380156e-02
  -2.00924538e-02 -1.35131404e-02 -4.85172868e-03 -2.17969120e-02
  -5.00923246e-02 -2.62287669e-02 -7.97694921e-03  2.65317410e-02
   7.18778744e-02  3.00893486e-02  7.42062405e-02  7.97398016e-02
  -7.77500048e-02 -6.11473955e-02  6.88149706e-02  1.00347772e-02
  -1.93149969e-02  2.81384811e-02  3.44701111e-02  5.56708053e-02
  -2.78920345e-02 -5.00484854e-02 -4.63477932e-02 -7.18840957e-02
   3.35527211e-02  5.72568402e-02 -1.46989226e-02  2.32254118e-02
  -2.66703777e-02 -3.28367613e-02  1.27264559e-02 -1.03018582e-02
   7.02660605e-02 -3.26939858e-02  3.19263935e-02 -5.59497029e-02
   2.15443969e-03 -2.22187005e-02 -3.54267806e-02  4.77409884e-02
   7.41027370e-02 -2.03607231e-03 -1.71915367e-02  2.93709338e-04]
 [ 1.03097707e-02 -7.45253563e-02 -7.88438320e-03 -5.97930551e-02
  -5.41078076e-02 -4.50894497e-02 -4.48663458e-02 -1.24006048e-02
   6.13806322e-02  4.67399135e-02  3.04526016e-02  5.11942580e-02
   6.11771569e-02 -5.45060225e-02 -1.26219764e-02  1.77905783e-02
  -2.82768309e-02  3.12251598e-03 -4.37471606e-02  1.14749819e-02
   5.78469113e-02  1.35397315e-02 -7.76165500e-02 -2.33912580e-02
  -2.92615145e-02 -7.94828907e-02  5.08456454e-02 -6.02525324e-02
  -3.43948677e-02 -1.13417953e-02 -6.77800477e-02 -4.93598729e-03
  -1.47742108e-02 -6.14487045e-02  2.82641649e-02 -6.02150932e-02
   7.75704458e-02 -2.78846100e-02 -6.53868169e-03  2.62655914e-02
  -7.29792789e-02 -3.07370871e-02  4.00136113e-02 -8.45559686e-03
  -1.70605779e-02 -4.15989831e-02  5.27307019e-02  1.35289952e-02
  -7.17328340e-02 -3.54446284e-02 -7.31980726e-02 -7.10490867e-02
  -5.14777042e-02  6.47823885e-02 -5.81307188e-02  8.82410258e-03
  -7.93693513e-02  3.05905789e-02 -6.81676045e-02 -2.61114798e-02
  -7.99192190e-02 -6.41159564e-02  4.55132648e-02  3.79807502e-02
  -7.27424845e-02 -6.54600710e-02  4.84019592e-02 -3.51119898e-02
   1.56155974e-02 -7.63940215e-02  7.34093264e-02  1.93604454e-02
   7.21877292e-02 -7.54542574e-02  6.02408275e-02 -1.05477646e-02
  -1.31919682e-02 -7.73032457e-02 -1.16786733e-02  2.18518525e-02
   7.03492984e-02  3.49186435e-02 -6.63543865e-02 -5.83051294e-02
  -8.35654140e-03  4.41095605e-02 -6.92728236e-02  3.03314254e-02
  -7.86721259e-02  3.20749655e-02 -5.29394075e-02  7.11382702e-02
  -3.62669304e-02  2.19497606e-02 -2.43696608e-02  2.67635658e-02
  -4.42266352e-02 -7.28688836e-02 -4.75990772e-03 -1.23586804e-02
  -1.33429617e-02  4.95677218e-02  6.63040653e-02  3.35890576e-02
  -2.48610862e-02 -5.44346832e-02  1.66759193e-02  8.41840357e-03
  -7.03976974e-02  6.08667806e-02 -2.62235068e-02 -3.55562493e-02
  -3.44544500e-02  2.59012133e-02  1.34121329e-02  5.22198156e-02
   3.15978378e-02  2.68420652e-02  5.90701774e-02 -4.42757532e-02
  -4.22643945e-02 -2.53621787e-02 -1.26884356e-02  3.22630703e-02
  -3.14967148e-02 -4.66019586e-02 -2.56149136e-02  6.70875236e-02]
 [-7.86172673e-02  5.21114394e-02  5.09606376e-02 -7.67855644e-02
  -7.88574517e-02  5.25550023e-02  3.69369239e-02 -6.73355907e-02
  -2.91315615e-02 -8.01153481e-02  6.34441525e-03  3.77635434e-02
   3.89341637e-02 -2.97331177e-02 -2.71463692e-02  6.00227639e-02
  -2.16941871e-02 -5.90598434e-02  1.16954520e-02  5.94056919e-02
   7.68502057e-03  7.86938444e-02 -6.06632978e-02  4.21502814e-02
   6.48656115e-02  5.59865460e-02  2.21537054e-02  3.30496356e-02
   6.63093999e-02 -5.49012981e-02  3.91780585e-02 -5.04523888e-02
   3.57568637e-02  5.08717373e-02  4.11098972e-02  1.40239969e-02
   7.73287043e-02  7.93251768e-02 -4.30427231e-02  2.89095417e-02
   7.03185126e-02  5.16948476e-02  1.70667097e-02  2.68308669e-02
   3.90146524e-02  1.43147707e-02 -4.86421660e-02 -9.94004309e-03
   3.04645747e-02  7.85846189e-02 -9.37195867e-03  4.55391631e-02
   5.67383543e-02 -7.70121664e-02  4.25645709e-03 -1.79868266e-02
   7.08959028e-02 -3.28951068e-02  5.60488924e-02  7.61301741e-02
   7.56689087e-02  1.22877657e-02  2.48617083e-02  4.47967723e-02
  -7.69617707e-02 -4.11712788e-02 -7.43962973e-02  3.56080756e-02
  -7.21773207e-02 -6.98854476e-02  4.18019816e-02  2.57247761e-02
   1.90252140e-02  7.33145550e-02 -1.29122213e-02  5.91310486e-02
   6.71043023e-02 -2.14418992e-02  2.73269713e-02  4.40031961e-02
   5.88978156e-02  1.89754367e-02  1.40927508e-02  3.46550345e-03
   2.81851739e-03  2.09477320e-02  6.03923276e-02  1.24261305e-02
  -8.09937716e-02 -4.58568335e-02  5.31795248e-02 -3.89669240e-02
  -4.64240834e-02  5.29967025e-02  6.36019334e-02  3.59416232e-02
  -4.51477617e-03  5.82198426e-02  6.83390126e-02 -7.35127851e-02
  -4.24811207e-02  4.11102921e-03 -2.22251602e-02 -7.68667832e-02
   1.43105537e-03  3.89271975e-03 -5.09619489e-02 -5.78530952e-02
  -7.89064541e-02 -6.60211071e-02  5.10345399e-03 -6.09476492e-02
   1.07919350e-02  1.85352787e-02  6.58673123e-02 -7.97491148e-02
   7.30309561e-02 -3.54832262e-02 -7.95082599e-02 -6.56552091e-02
  -3.44131216e-02  5.38046435e-02  5.57849631e-02  6.20105639e-02
  -2.76174396e-03  6.66783229e-02 -7.68528804e-02  8.10978636e-02]
 [ 7.23630413e-02  5.28708845e-03 -6.29361719e-02  1.11121759e-02
  -7.15300292e-02 -4.89888266e-02 -5.80940098e-02 -4.64216843e-02
  -6.20421171e-02  2.10490823e-02  7.20042512e-02 -2.45584548e-03
   3.67529243e-02 -1.47944018e-02 -7.26093426e-02 -4.80270348e-02
   1.93903968e-02 -2.11469829e-03 -2.85668857e-02 -1.81887150e-02
  -3.85065787e-02 -6.41211420e-02  5.81309125e-02 -5.04694618e-02
   1.82350725e-02  5.80990836e-02  3.03763896e-02 -3.99341881e-02
  -4.32939827e-03 -2.66273879e-02 -7.88001120e-02 -1.98730230e-02
  -7.94079900e-02 -6.39528409e-02 -5.20725101e-02 -2.34770067e-02
  -4.63783853e-02  5.39704487e-02  1.64100528e-02  7.03453347e-02
   6.45386204e-02  2.10820735e-02 -1.83259621e-02  4.54955176e-02
  -1.15251467e-02 -1.69972405e-02  1.08273178e-02  3.65336612e-02
   5.60498610e-02 -6.47023320e-02 -2.61197574e-02  9.70235467e-03
  -6.77262619e-02  1.10268593e-04  2.03506649e-03  3.33519131e-02
  -3.88488472e-02 -7.88604841e-02 -7.25741461e-02  4.65416536e-02
   4.46943268e-02 -1.42598301e-02 -5.56239337e-02 -7.11253360e-02
  -5.12196943e-02 -1.37090161e-02 -4.10592519e-02  3.38062271e-02
   7.21822605e-02  4.61934134e-02  1.23746693e-04  4.41215187e-03
  -5.23081087e-02 -3.10972631e-02  2.49575675e-02  2.15055794e-02
   5.44256344e-02 -7.83754140e-03 -3.27710509e-02 -4.95071113e-02
  -6.58730417e-03  2.85450369e-03 -1.93528607e-02 -6.04093075e-05
   5.20180985e-02  1.34047493e-02 -2.49702334e-02 -4.59814668e-02
   7.93299824e-03 -9.07526910e-03 -4.72561717e-02  2.04855651e-02
  -1.08536184e-02 -4.45529856e-02  3.15044075e-03  7.57569745e-02
   1.78781971e-02  1.82650462e-02  5.59367314e-02  5.55559173e-02
   1.16913766e-02  1.55973658e-02 -2.95222551e-02 -5.90703040e-02
  -4.15727235e-02  3.20195854e-02 -4.67181206e-02  7.31963292e-02
  -1.99603550e-02  3.73354331e-02 -2.63996981e-02 -2.33581662e-03
  -2.32875347e-04 -4.19548489e-02 -9.25737619e-03  7.76771232e-02
   5.28164729e-02 -4.50038202e-02 -4.04010937e-02 -1.71201006e-02
  -6.51253983e-02 -1.36585608e-02 -7.32471943e-02  6.43436089e-02
  -9.80776548e-03  1.03156492e-02 -4.20975052e-02 -1.80477425e-02]
 [-7.02282339e-02 -6.36564195e-02  1.03988051e-02 -7.12079927e-02
   8.08721781e-03 -6.72909170e-02 -3.04558314e-02 -7.27030188e-02
  -6.23306260e-02  1.54506266e-02  6.29849806e-02 -5.15336469e-02
   3.29665989e-02  2.06901059e-02 -1.48278549e-02  2.96720862e-02
   5.15977517e-02  7.46661425e-03 -7.11814985e-02  6.99564889e-02
   2.40648314e-02 -2.14583762e-02  4.33258340e-02  6.68320581e-02
   8.98580998e-03 -3.86168808e-03 -2.21483484e-02  7.92949647e-03
  -7.37993196e-02 -1.21829733e-02  6.97584674e-02  4.51510400e-03
  -7.43861645e-02 -6.96505606e-02 -1.79895088e-02  2.58243829e-02
   3.94289568e-02 -6.10794984e-02  2.83472389e-02 -4.33117189e-02
  -3.14446539e-03 -2.01821066e-02 -5.24311401e-02  4.96141836e-02
   6.35754988e-02  2.46390998e-02 -5.96539155e-02  1.16087645e-02
   3.21342945e-02  2.21897736e-02  7.85513595e-02  1.08357891e-02
  -5.46304435e-02  1.20697692e-02  1.12321451e-02  1.86718032e-02
   8.17683339e-03 -5.82938716e-02  4.96080592e-02 -1.27758086e-02
  -7.73890540e-02  7.50068203e-02 -4.04416025e-03  6.57773390e-02
  -6.20852448e-02 -5.11335582e-03  7.46149942e-02  4.20089141e-02
  -8.46626610e-03 -7.69513473e-02 -5.05135357e-02  5.40446714e-02
   4.37824726e-02 -6.72328472e-02  7.86666498e-02 -7.77437389e-02
   4.47078124e-02  3.20358872e-02 -7.97016844e-02 -9.34233516e-03
  -7.75145590e-02 -8.02465007e-02 -7.89636895e-02  7.05921277e-02
  -2.07765847e-02 -3.03592943e-02  4.98814210e-02  2.29119211e-02
   1.11362115e-02  2.38723159e-02 -6.21784329e-02 -5.53543344e-02
   3.61024588e-03 -3.80260982e-02 -2.59753987e-02  4.11344618e-02
  -2.11212151e-02 -8.03072229e-02 -9.30289924e-03  1.75391585e-02
   7.90603831e-02  6.95661083e-02  8.01009759e-02 -4.75934111e-02
   3.81593183e-02  7.41438195e-02 -1.82054788e-02  7.77358040e-02
  -5.11936843e-02  5.70618734e-02 -4.52707671e-02 -3.16974074e-02
  -6.42004609e-03  4.78611514e-02  6.60340413e-02 -4.06656601e-02
   8.02664235e-02 -7.86616504e-02  3.61743942e-02 -6.90504536e-02
   2.69695967e-02  3.16434503e-02 -4.17704955e-02  1.26735121e-03
  -2.83125266e-02 -4.89138812e-03  7.61276707e-02 -6.26084208e-02]
 [ 7.41109475e-02 -1.27512887e-02  6.12854287e-02 -1.63676757e-02
  -1.74743179e-02  8.38663951e-02 -5.64546473e-02  5.51150180e-03
  -5.91945089e-02  2.77391355e-02 -2.59548984e-02 -4.22833525e-02
   2.63641775e-02  1.93235260e-02  9.42684934e-02 -8.06505382e-02
   1.73461810e-02 -5.12675531e-02 -5.25348671e-02 -1.19503632e-01
  -1.24030164e-03  4.14427742e-02 -6.53296858e-02 -7.27135390e-02
   6.22045770e-02  4.75950651e-02 -1.50941415e-02 -7.12242052e-02
   7.99986199e-02 -6.60407096e-02  5.65561019e-02  7.24136159e-02
  -7.38782212e-02  7.91935697e-02  5.44130690e-02 -3.43704186e-02
   7.40545914e-02 -5.41047342e-02  5.27677238e-02  1.97582878e-02
   4.87485901e-03  6.21514246e-02 -1.08401207e-02  3.39481607e-02
   3.30658257e-02  5.14556728e-02  3.46635878e-02  2.22427770e-02
   4.81417850e-02  3.63279842e-02 -1.66299939e-03  4.84569296e-02
   4.74842340e-02 -1.99592896e-02  5.47977127e-02  5.01590557e-02
   6.70170113e-02 -2.37938762e-02  8.44757035e-02 -1.24748405e-02
   5.13618663e-02 -4.83785681e-02 -2.78855767e-02  3.63795608e-02
   4.44426015e-02 -5.14221601e-02 -2.28906311e-02 -5.32563031e-02
  -2.51477212e-03  1.02487355e-02  7.34674707e-02  3.18514146e-02
   8.37292150e-02 -6.88321590e-02  2.12048292e-02 -5.82369305e-02
  -4.47758287e-02 -4.87873927e-02  1.48637444e-02  2.43725069e-02
  -3.92346308e-02 -6.02838024e-02  4.04303521e-02 -8.01616609e-02
  -2.30352934e-02 -6.77521527e-02  4.61193509e-02 -3.53422277e-02
  -3.58630391e-03  5.03006950e-02  2.77158357e-02 -6.23766333e-02
   2.72935082e-04 -1.42822042e-02 -1.76794231e-02 -7.20418394e-02
   1.11340138e-03 -5.34903556e-02 -3.33159082e-02 -2.22390480e-02
  -4.47303392e-02  4.52148840e-02  6.83613308e-03 -6.44560456e-02
   5.16758189e-02  7.13617057e-02  2.26467699e-02 -5.00322953e-02
   1.00150462e-02  7.14176819e-02 -2.44069248e-02  9.45105404e-03
   4.83566746e-02  6.45472929e-02 -4.84557077e-02  7.50272581e-03
  -4.16085916e-03  1.60057936e-02 -2.01283284e-02 -7.10873529e-02
   2.86837164e-02 -5.50819226e-02  7.78545216e-02  1.18309120e-02
   3.65537405e-02  8.65766481e-02 -3.23653519e-02 -6.39214516e-02]
 [-4.61775325e-02  1.36074126e-01 -4.43818606e-02 -2.10002512e-01
   7.02708289e-02  1.91806967e-03 -1.45719439e-01 -7.76949301e-02
   9.37453732e-02  1.67870466e-02 -7.62833282e-02 -2.24503681e-01
   2.87663788e-02  2.07499117e-02  1.71160981e-01  1.94582548e-02
   7.24922493e-02  1.28716538e-02  1.09089926e-01 -1.93389162e-01
   1.49311438e-01 -4.56560813e-02 -7.74852931e-02  6.53319135e-02
  -5.14477678e-02  1.49435654e-01 -1.00212708e-01  3.69420671e-03
   6.71752170e-02 -1.15711592e-01  1.55011088e-01  1.17008537e-02
  -6.70974627e-02  1.77384615e-02 -7.24793077e-02 -1.79198861e-01
  -3.16815078e-02 -1.83434784e-02  3.17443870e-02  2.92234421e-02
   6.04071133e-02 -1.48424860e-02  6.89468011e-02  1.21609718e-01
  -6.34131581e-03  4.24278565e-02 -7.08898082e-02 -4.88814786e-02
  -2.26588026e-02  3.20078619e-03 -2.22331844e-02  9.43187475e-02
   1.23176752e-02 -5.95825762e-02  2.11299643e-01  3.73661667e-02
   8.96222144e-03  5.91312116e-03  1.63569599e-02 -2.31353678e-02
   6.21978007e-02 -9.38914716e-04 -2.37576768e-01  1.38864294e-02
  -2.06014588e-02  1.43063024e-01 -2.39445269e-02  7.80623406e-02
  -5.93203902e-02  5.32893762e-02  1.26241773e-01  9.72105637e-02
   9.92113203e-02  3.73503529e-02 -8.06094632e-02 -1.43457964e-01
  -3.90004255e-02 -6.01549260e-02  6.47525713e-02  3.11501026e-02
  -4.95929644e-03  3.95018980e-02  6.64170161e-02  9.66487825e-03
   1.18621387e-01 -1.29759550e-01  5.23192361e-02  3.91338579e-02
   1.31560430e-01  5.77720329e-02 -2.93744802e-01 -9.30659473e-03
  -7.36405849e-02 -1.00531876e-02 -3.49868834e-03 -2.55652815e-01
   1.45564660e-01 -4.36164923e-02  6.55853823e-02  1.84130687e-02
  -6.30737767e-02 -2.43386254e-02  6.05712384e-02 -1.00077689e-03
   4.80035022e-02  2.86767147e-02 -4.51768413e-02 -4.21446860e-02
   1.52090475e-01 -2.21781190e-02 -6.27338886e-02 -4.97847311e-02
  -2.75738612e-02 -2.43209526e-02  1.04527384e-01  6.17813766e-02
  -1.83818012e-01 -1.29467234e-01 -6.85862377e-02 -9.04958248e-02
  -9.99492630e-02 -1.87040612e-01  7.32726976e-02  7.21015036e-02
  -7.51781240e-02  2.02422112e-01 -1.20554753e-01  2.86165848e-02]
 [-7.46576250e-01  8.92241180e-01 -6.51618540e-02 -1.00751138e+00
  -2.59199440e-01 -1.21780768e-01 -3.98985565e-01 -8.07934582e-01
  -4.30814810e-02 -7.42223859e-01 -1.67844668e-02 -1.05219376e+00
  -4.36514542e-02  2.70863533e-01  9.49104309e-01 -2.02217296e-01
   7.13173673e-02  7.64093697e-01  7.02115238e-01 -9.10556793e-01
   8.75548899e-01  1.01422191e-01 -7.86812961e-01 -3.85453105e-02
  -4.04584482e-02  8.91054749e-01 -8.83945286e-01 -6.51012659e-01
   3.43467295e-03 -9.15622294e-01  8.94623280e-01  2.49220431e-02
  -4.23857540e-01  2.49624252e-03 -8.68010938e-01 -8.37987542e-01
  -3.44377041e-01  2.02487484e-02 -2.61766970e-01  8.60819101e-01
   9.09010887e-01 -2.70982742e-01 -4.36701894e-01  8.23610783e-01
  -7.16557130e-02  9.98433173e-01 -6.62012994e-01 -3.51612978e-02
  -5.85258961e-01 -8.48272681e-01 -6.32771775e-02  9.78752911e-01
  -4.64904904e-01  1.52640864e-02  1.03341663e+00  8.74141097e-01
  -4.74171229e-02  4.52376842e-01  6.71567202e-01 -4.95508224e-01
   6.70616627e-01 -6.09164014e-02 -1.02834082e+00  3.46888080e-02
   3.78726125e-02  9.99274373e-01 -7.48776868e-02 -2.84407377e-01
  -7.42365643e-02  5.69804683e-02  9.56797719e-01  6.65993571e-01
   8.96842599e-01 -6.63556576e-01 -7.64302239e-02 -5.14302552e-01
   2.21213832e-01  3.93983305e-01 -2.13246532e-02  1.87162295e-01
  -5.29601336e-01  5.89806959e-02 -5.70608228e-02 -9.63462889e-03
   2.38141224e-01 -9.87771034e-01  8.29202592e-01  9.31474686e-01
   9.00984049e-01 -5.30244410e-03 -1.04689693e+00  5.10885343e-02
  -2.48285800e-01  6.45835772e-02  3.72524485e-02 -9.41943645e-01
   8.93337071e-01 -6.64269030e-02 -5.03478423e-02 -8.89938414e-01
  -3.38385813e-02 -2.43652612e-01  8.13855350e-01 -3.24705243e-03
  -1.79387704e-02  1.44524977e-01 -1.62818655e-02 -2.65288830e-01
   1.00872397e+00  7.33654857e-01 -1.90205127e-02 -3.55507582e-02
  -2.11729258e-02  1.59453914e-01  8.02669942e-01  8.91206205e-01
  -9.44819391e-01 -4.24074084e-01  8.12105834e-03 -3.30036432e-01
  -9.56331134e-01 -9.52661932e-01 -5.98881841e-02  2.77936399e-01
  -2.71465071e-02  8.71404469e-01 -4.46449369e-01  5.13113812e-02]
 [-8.10608447e-01  1.06136215e+00 -9.70937312e-03 -1.07693815e+00
  -2.15499535e-01 -8.12417194e-02 -5.39940000e-01 -1.05893528e+00
   1.20125599e-01 -8.94593596e-01 -3.60609591e-02 -1.08742332e+00
   2.41059661e-02  2.34467849e-01  1.12652957e+00 -3.51055831e-01
   7.98302665e-02  1.01354516e+00  9.96962368e-01 -1.08823824e+00
   1.08960831e+00 -1.83240235e-01 -9.96894121e-01  6.12036660e-02
   6.54970780e-02  1.15277922e+00 -1.03666079e+00 -5.95154405e-01
   5.10851964e-02 -1.07900810e+00  1.04673803e+00  1.74921304e-02
  -6.31963015e-01 -1.58875361e-02 -1.03100634e+00 -8.93533409e-01
  -3.13769162e-01  7.21231177e-02 -4.19805884e-01  1.05791998e+00
   1.10462236e+00 -2.92126268e-01 -5.16382754e-01  1.04082501e+00
   6.52306750e-02  1.12198627e+00 -8.85317326e-01  7.49474689e-02
  -8.65236998e-01 -9.19893682e-01 -6.45437241e-02  1.08910692e+00
  -6.10514104e-01 -1.50006413e-02  1.15750301e+00  1.20193207e+00
   7.61965141e-02  6.80979490e-01  8.14108968e-01 -7.88105845e-01
   9.21797752e-01 -8.63093138e-03 -1.06328905e+00  4.67690602e-02
  -4.12167832e-02  1.05338669e+00  3.91265824e-02 -3.55343699e-01
  -7.56480992e-02 -7.57445246e-02  1.09895670e+00  8.82066309e-01
   1.02394819e+00 -7.49430060e-01  3.73272300e-02 -7.72360206e-01
   2.84044623e-01  4.26949024e-01 -7.65997022e-02 -1.06100067e-02
  -5.48485756e-01 -4.64784056e-02  1.34925842e-02  7.90841877e-04
   5.63671172e-01 -1.08154905e+00  1.15023279e+00  1.05430174e+00
   1.15944076e+00  2.76719257e-02 -1.14182639e+00  7.41142258e-02
  -4.24919844e-01  3.41995507e-02  7.21007958e-02 -1.23984420e+00
   1.09678471e+00 -5.58772609e-02  1.96536481e-02 -9.89790022e-01
   8.68800282e-03 -2.74912447e-01  1.02144897e+00 -4.11188155e-02
  -5.65330461e-02  4.22352821e-01 -5.18200472e-02 -3.59974891e-01
   1.18971431e+00  1.09292042e+00 -6.17787577e-02  2.30736658e-02
  -3.18000950e-02  9.41131264e-02  7.43263543e-01  1.10339785e+00
  -1.06442761e+00 -6.07642949e-01  3.82451788e-02 -3.47308308e-01
  -1.07540286e+00 -1.10768509e+00  6.54287562e-02  2.95416623e-01
  -3.55652720e-03  1.15744627e+00 -5.02657235e-01  5.27685508e-02]
 [-3.89577806e-01  9.47947145e-01 -7.18554184e-02 -1.01168108e+00
   3.30039471e-01  6.46736562e-01 -7.63000667e-01 -1.01042724e+00
   3.75179648e-01 -2.65248924e-01  6.19034842e-02 -1.04193997e+00
   4.54081967e-02  8.50742459e-02  1.01135468e+00 -7.32667506e-01
  -5.92143759e-02  7.72807121e-01  9.08211768e-01 -9.84790325e-01
   9.46647823e-01 -3.23205978e-01 -6.19537055e-01  5.34628406e-02
   2.47853994e-02  9.57798362e-01 -9.41828787e-01 -1.36471137e-01
  -7.52530247e-03 -9.95641828e-01  1.06829512e+00 -6.00349009e-02
  -2.88434237e-01  5.58409020e-02 -7.17553973e-01 -8.36319268e-01
   3.55793953e-01 -5.44757769e-02 -1.10503472e-01  1.09586668e+00
   9.22659516e-01  6.27593100e-02  1.37424879e-02  1.07056797e+00
   5.63970730e-02  9.59329844e-01 -8.33403587e-01  1.46518154e-02
  -5.40208399e-01 -9.00917590e-01 -1.86924189e-02  9.12670135e-01
  -6.71729386e-01  7.14268610e-02  1.11751091e+00  1.06043887e+00
   2.29832381e-02  5.98104775e-01  8.17956567e-01 -4.09132779e-01
   8.81596208e-01  5.24415821e-03 -9.65762317e-01 -5.73877245e-03
  -6.04643077e-02  7.48257935e-01  2.95044407e-02  3.21528763e-01
  -5.02411276e-03 -4.97106463e-02  9.02928352e-01  9.36152399e-01
   1.06520545e+00 -4.55332845e-01 -6.83688372e-02 -5.96481442e-01
   4.83817071e-01 -1.54373214e-01 -4.33666594e-02 -3.11929345e-01
   2.04201471e-02  1.81564763e-02  7.35442117e-02  3.99839431e-02
   6.46317482e-01 -1.00917673e+00  9.96386528e-01  1.05053020e+00
   9.95064557e-01 -6.49562851e-02 -1.17264128e+00 -6.21630810e-02
  -5.32145560e-01  4.33442742e-03  4.73000184e-02 -1.07386935e+00
   9.70414281e-01  3.04179639e-02  5.03997132e-02 -6.40897751e-01
   6.58431426e-02  1.33389443e-01  9.30422962e-01 -1.11736506e-02
   2.13550702e-02  5.65586030e-01 -7.89379552e-02 -3.76316339e-01
   1.04511893e+00  8.50749612e-01 -2.38290042e-01  3.39668542e-02
  -7.55613521e-02 -1.84042841e-01  3.65737140e-01  9.11012173e-01
  -1.05306554e+00 -7.14561939e-01 -1.28619969e-02 -4.25575227e-01
  -9.92337883e-01 -9.44950879e-01 -4.36295234e-02  2.08223239e-01
  -2.31724977e-03  9.94823277e-01 -6.56126201e-01  7.98146501e-02]
 [-4.03462768e-01  1.58252454e+00  7.65269175e-02 -1.33432865e+00
   7.30823755e-01  9.30484056e-01 -1.12865973e+00 -1.30402482e+00
   7.55729616e-01  5.15198410e-01 -7.60867149e-02 -1.51465583e+00
   5.48448488e-02 -1.42941207e-01  1.28980029e+00 -7.43690789e-01
   2.96355560e-02  9.24523592e-01  1.25896037e+00 -1.48219740e+00
   1.16719818e+00 -5.90129435e-01 -6.55404687e-01  7.15941712e-02
   1.92794949e-03  1.36422610e+00 -9.84446764e-01  1.63750216e-01
   2.52104327e-02 -1.47500098e+00  1.33247709e+00  1.96235999e-02
  -4.04617220e-01 -3.25713642e-02 -1.08334601e+00 -1.23776245e+00
   8.12806964e-01 -3.10094655e-02  1.07177965e-01  1.24856806e+00
   1.05780673e+00 -1.14587858e-01  4.65087771e-01  1.34500241e+00
   6.57307282e-02  1.14604795e+00 -1.01289320e+00 -1.20936111e-01
  -5.78107834e-01 -1.03059745e+00  3.37431282e-02  1.43720114e+00
  -8.64969850e-01 -1.54159293e-02  1.55298495e+00  1.28941488e+00
   6.32634237e-02  3.68780822e-01  1.09341133e+00 -7.01441765e-01
   9.60815191e-01 -3.57237570e-02 -1.44232333e+00 -4.70879674e-02
  -4.47314233e-03  6.76154315e-01  8.06618854e-02  6.80299819e-01
  -1.68949366e-03 -1.59972161e-03  1.46718442e+00  7.96501935e-01
   1.52739954e+00  4.68952917e-02  1.90431401e-02 -9.19413686e-01
   2.98101038e-01 -6.58392191e-01  3.36920768e-02 -5.83855331e-01
   4.44326252e-01 -3.93487401e-02  3.70871276e-02 -6.88652694e-03
   9.36257482e-01 -1.44288051e+00  1.35214257e+00  1.41810143e+00
   1.47185385e+00  4.11613360e-02 -1.70660770e+00 -1.27709955e-02
  -1.10352015e+00  9.09718126e-03 -2.92557143e-02 -1.47267485e+00
   1.36412406e+00  5.81960008e-02 -6.31734878e-02 -5.00282764e-01
   3.09599787e-02  5.10191441e-01  1.24326992e+00  8.01390484e-02
  -6.26760274e-02  7.29269803e-01 -6.09205961e-02 -3.70325327e-01
   1.47552109e+00  1.04901540e+00 -3.23972136e-01 -4.16177809e-02
   5.78778610e-02 -4.20948654e-01 -2.05633342e-01  1.34116125e+00
  -1.48053944e+00 -1.04948401e+00  5.88044524e-03 -6.30338192e-01
  -1.38848138e+00 -1.30235648e+00 -6.97927177e-02  5.88871986e-02
  -6.08287975e-02  1.52262080e+00 -1.07090998e+00 -4.31914367e-02]
 [-5.26104927e-01  1.42899144e+00  5.58281764e-02 -1.18659782e+00
   8.14228117e-01  1.18546760e+00 -1.35013294e+00 -1.43584073e+00
   1.26398683e+00  4.69457269e-01 -1.12465173e-02 -1.52900982e+00
  -6.27551228e-03 -1.80226136e-02  1.59854352e+00 -8.17634523e-01
  -2.98528224e-02  1.54090047e+00  1.41012967e+00 -1.56873143e+00
   1.26737082e+00 -3.27776015e-01 -8.98884118e-01 -2.24973261e-02
   2.24527344e-02  1.29082346e+00 -1.07539666e+00 -6.66000368e-03
   8.01117718e-03 -1.34748971e+00  1.19342065e+00  7.46908784e-03
  -1.05684876e+00  3.35696042e-02 -1.19783878e+00 -1.23844087e+00
   1.18865561e+00 -5.42757064e-02 -2.48120613e-02  1.44740903e+00
   1.06675613e+00 -4.30680543e-01  3.95381182e-01  1.12083256e+00
  -1.90715864e-02  1.18887532e+00 -1.19142497e+00 -5.33248365e-01
  -1.14871180e+00 -1.17159414e+00  4.48380336e-02  1.26513469e+00
  -1.10579169e+00  5.47470525e-02  1.45943093e+00  1.48903012e+00
  -1.44195482e-02  4.80356276e-01  1.53063476e+00 -1.19277453e+00
   1.01946676e+00  7.61398599e-02 -1.39697778e+00 -6.48926422e-02
  -1.11590475e-02  9.80920196e-01  3.74325663e-02  8.85406077e-01
  -4.87674810e-02 -3.07817757e-02  1.32115018e+00  9.25652683e-01
   1.44418550e+00 -7.36120492e-02 -6.91907704e-02 -1.37274420e+00
   4.56768215e-01 -7.36875176e-01  3.05769593e-03 -7.17820346e-01
   3.72276664e-01 -4.35193144e-02 -1.29408389e-02  2.20170394e-02
   1.33817852e+00 -1.33292162e+00  1.44357455e+00  1.33540237e+00
   1.44543254e+00  6.17697835e-03 -1.48470581e+00  7.67306611e-02
  -1.02878582e+00 -7.53414631e-03  5.60592934e-02 -1.57850385e+00
   1.19739449e+00 -2.14378536e-03 -6.24665767e-02 -8.74495983e-01
   4.91493568e-02  8.33609939e-01  1.30773509e+00  8.07011798e-02
  -7.74440095e-02  1.11713374e+00  1.94769204e-02 -5.37140965e-01
   1.26720405e+00  1.39637065e+00 -1.34702429e-01 -6.81246743e-02
  -4.19850945e-02 -6.79413795e-01  2.89924182e-02  1.37705195e+00
  -1.44739795e+00 -1.04433990e+00  3.08079198e-02 -6.18388057e-01
  -1.51984715e+00 -1.28183413e+00 -6.61541745e-02  2.30623379e-01
   4.34869081e-02  1.53384030e+00 -9.95088696e-01 -2.71647982e-02]
 [-1.24190664e-02  1.96761918e+00 -7.17818365e-02 -1.89674747e+00
  -1.95888028e-01  1.46794558e+00 -1.77309668e+00 -1.76887572e+00
   1.63314790e-01  3.69884193e-01  3.13452408e-02 -2.21878386e+00
  -6.32411689e-02 -2.07836204e-03  5.86605251e-01 -1.57280654e-01
  -1.77486539e-02  7.36575961e-01  4.59119916e-01 -1.49079978e+00
   1.30937231e+00 -4.89657581e-01 -1.49680328e+00 -3.17488462e-02
   2.60647610e-02  1.79025948e+00 -1.47971833e+00  2.57959098e-01
  -4.62693758e-02 -1.74238813e+00  1.88328505e+00  7.59489164e-02
  -1.47524989e+00  7.84817562e-02 -7.72113860e-01 -1.71134293e+00
   3.68675947e-01  3.70419174e-02  5.97034037e-01  1.85530531e+00
   1.65091252e+00 -2.46881872e-01 -1.59156099e-01  1.23637414e+00
   6.56737909e-02  1.04610348e+00 -1.46337008e+00  1.29053131e-01
  -1.27037776e+00 -6.22722149e-01  5.18478230e-02  1.97744846e+00
  -1.46189630e+00  6.37813285e-02  2.12672472e+00  1.96506393e+00
  -1.58568472e-03  1.00561678e+00  1.57557118e+00 -3.14327806e-01
   8.86615336e-01 -3.15067507e-02 -1.39642560e+00  1.33802667e-02
  -1.05016679e-03  1.39613366e+00  7.67255798e-02  1.08879185e+00
  -6.76151067e-02 -2.71714516e-02  1.95400822e+00  1.15341365e+00
   1.67495108e+00 -6.10941172e-01  9.21586156e-03 -1.75230026e+00
  -2.51202941e-01 -1.14774919e+00 -6.76771626e-02 -1.12459815e+00
   7.31033564e-01 -2.04853527e-02 -7.88470805e-02  8.06223974e-02
   1.34142387e+00 -1.97659814e+00  9.24191117e-01  1.74167466e+00
   1.95875168e+00  5.47341034e-02 -2.10328698e+00  4.09525409e-02
  -1.76894534e+00  5.05582765e-02 -7.35083595e-02 -2.12773347e+00
   1.99929762e+00 -2.15141289e-02 -7.74416700e-02 -4.15231526e-01
  -3.26230340e-02 -2.04895735e-01  5.41081727e-01 -4.25026566e-03
   2.19015554e-02  1.24726367e+00 -2.61610262e-02 -6.90007389e-01
   2.08905149e+00  1.40116298e+00  2.74711728e-01  2.12752447e-02
   7.00385123e-03 -1.82362795e-01  3.43969733e-01  1.04646158e+00
  -2.05628204e+00 -1.52262557e+00 -5.95368445e-03 -7.52147317e-01
  -1.46342075e+00 -1.67903423e+00  5.79614714e-02  7.50360131e-01
   4.36043665e-02  1.37289178e+00 -1.47066700e+00  3.71072218e-02]
 [-5.63791320e-02  1.93709040e+00  7.72185847e-02 -2.01773953e+00
  -2.14416444e-01  1.55661702e+00 -2.10434771e+00 -1.79539692e+00
   1.21530825e-02  9.71732102e-03 -6.06136583e-02 -2.35588861e+00
  -3.25865820e-02  9.36505944e-02  5.76311290e-01 -1.44712284e-01
   4.51395884e-02  5.55303752e-01  2.94456154e-01 -1.49770451e+00
   1.41691244e+00 -5.69792151e-01 -1.65218544e+00  7.65224025e-02
   5.61044738e-02  1.99245703e+00 -1.55708456e+00  3.09030980e-01
   4.75449190e-02 -1.91216409e+00  1.84780288e+00 -1.84267312e-02
  -1.63071215e+00 -1.65317729e-02 -5.79811990e-01 -1.94026232e+00
   2.00270817e-01 -1.18869469e-02  9.48180377e-01  1.94203937e+00
   1.75606728e+00 -3.82720977e-01 -2.90737391e-01  1.21095228e+00
  -2.14031450e-02  1.02926743e+00 -1.66104186e+00  2.19258457e-01
  -1.65963995e+00 -6.34375155e-01  4.16483730e-02  2.02982426e+00
  -1.40040982e+00 -6.02929704e-02  2.40325141e+00  2.32142210e+00
   1.21490359e-02  1.09854674e+00  1.75961375e+00 -1.85042202e-01
   8.08311582e-01  2.46854722e-02 -1.58638227e+00 -7.31730461e-03
  -1.04899257e-02  1.45107782e+00 -2.56613642e-03  1.12485826e+00
  -7.46521205e-02  1.13119185e-03  2.02550507e+00  1.21440923e+00
   1.86538780e+00 -6.70899034e-01  1.68967992e-02 -1.77125967e+00
  -1.99063361e-01 -1.29632592e+00  5.41014597e-02 -9.99097228e-01
   5.33803046e-01  3.52150425e-02  1.72952488e-02  1.48412958e-02
   1.39318538e+00 -2.14391375e+00  7.77617037e-01  1.86768472e+00
   2.20855808e+00  5.56054786e-02 -2.20734620e+00  4.33068275e-02
  -1.66215098e+00 -6.65533021e-02  3.13684046e-02 -2.31208730e+00
   1.96287847e+00 -6.20868281e-02  1.51744708e-02 -4.94575948e-01
   5.00594154e-02 -3.27161938e-01  5.37511647e-01 -2.14174949e-02
   5.00705913e-02  1.25338423e+00 -3.35455090e-02 -6.12464845e-01
   2.10534263e+00  1.43281281e+00  2.31726184e-01 -4.73731682e-02
   1.81777775e-03 -2.31227353e-01  5.36808431e-01  1.07181823e+00
  -2.01877713e+00 -1.67238653e+00 -2.45205201e-02 -8.47556114e-01
  -1.45391405e+00 -1.80410302e+00  4.11077887e-02  6.67683959e-01
  -4.60407585e-02  1.29876935e+00 -1.45368540e+00  7.91699961e-02]
 [ 2.20439266e-02  1.95911324e+00  4.68712673e-02 -1.80494809e+00
  -3.17003161e-01  1.22270513e+00 -1.68115222e+00 -1.79137969e+00
   1.25089034e-01  3.33366871e-01  4.98599634e-02 -2.27207232e+00
   6.31590188e-02  4.91735458e-01  6.91841662e-01 -1.56529963e-01
   7.51459524e-02  6.12934530e-01  2.50444323e-01 -1.65410066e+00
   1.35612154e+00 -4.95830953e-01 -1.22461569e+00  6.53119907e-02
   1.59844309e-01  1.64787829e+00 -1.61720920e+00  8.89210925e-02
   1.84559338e-02 -1.51476109e+00  1.87743044e+00 -1.20959654e-01
  -1.31411099e+00  1.80220515e-01 -6.45027041e-01 -1.81931317e+00
   2.35222667e-01  1.21310921e-02  7.86283672e-01  1.69628489e+00
   1.50711775e+00 -4.47927833e-01 -1.08301096e-01  1.31759381e+00
   5.03375903e-02  9.65853989e-01 -1.83334899e+00  2.10198641e-01
  -1.60792041e+00 -7.90430248e-01  8.04334432e-02  2.02724934e+00
  -1.37686157e+00 -3.54141332e-02  2.02957058e+00  1.93857443e+00
  -4.49725986e-03  1.17432499e+00  1.69330597e+00 -1.98625028e-01
   7.38554657e-01 -9.45495348e-03 -1.49256420e+00  8.60049948e-02
  -7.12111741e-02  1.09810364e+00  1.15786344e-02  1.06369412e+00
  -7.96267465e-02  3.57430577e-02  1.81691432e+00  9.60509658e-01
   1.58854353e+00 -7.37295210e-01  5.06307073e-02 -2.20912170e+00
  -2.20824301e-01 -1.13056290e+00 -7.48791173e-02 -6.87105060e-01
   6.30532742e-01  1.72523707e-02 -1.63609728e-01  6.34892806e-02
   1.19894052e+00 -2.09087276e+00  9.93148565e-01  1.69864845e+00
   1.80956459e+00 -2.53331661e-03 -2.21776652e+00  3.34436968e-02
  -1.36774278e+00 -1.18306773e-02  6.29968196e-03 -2.13860035e+00
   1.75565326e+00 -1.30734676e-02  5.09103909e-02 -3.30185682e-01
  -6.86751008e-02 -2.88413107e-01  5.27346492e-01 -6.98690414e-02
   2.94114426e-02  1.11208677e+00  1.61388427e-01 -7.44438767e-01
   1.84321129e+00  1.49732924e+00  2.09104851e-01 -2.16917507e-02
  -1.30496919e-04 -8.00722241e-02  3.80006760e-01  1.03130126e+00
  -2.00694370e+00 -1.70162463e+00  1.15902565e-01 -9.42032933e-01
  -1.59746790e+00 -1.80926871e+00  7.80882463e-02  8.98217618e-01
   2.27953121e-02  1.31159616e+00 -1.00679016e+00  7.47281238e-02]
 [-8.00083876e-02  4.21687454e-01  5.03296033e-02 -3.61752033e-01
  -3.94871265e-01 -2.22951233e-01  3.76425952e-01 -8.33373740e-02
   1.69794798e-01 -2.47758076e-01  2.56280228e-02 -3.82755637e-01
   1.24207595e-02  2.13424012e-01  2.60805249e-01  1.99848145e-01
   4.15961966e-02  1.30928025e-01  1.52074382e-01 -4.83654529e-01
   2.15518132e-01  5.31203635e-02 -1.84450120e-01  6.27958104e-02
   2.12719426e-01  1.36651173e-01 -3.19468051e-01 -6.26013651e-02
   1.36837780e-01 -4.53728706e-01  3.07991922e-01 -1.33704305e-01
   1.92523338e-02  1.68642536e-01 -3.19945246e-01 -1.22191504e-01
   1.78039238e-01 -7.48952711e-03  5.08534372e-01 -4.07698184e-01
   5.26138067e-01 -3.69874805e-01 -1.76201433e-01 -4.39220399e-01
   1.66174769e-02  4.46356505e-01 -2.98631579e-01 -2.97194958e-01
  -3.56404364e-01 -8.23742509e-01  8.05889964e-02  7.37259328e-01
  -2.82863021e-01  1.92685276e-02  4.61393028e-01 -3.97393495e-01
  -1.49630308e-02  2.60042697e-01  3.76786470e-01 -5.78279972e-01
  -9.00047779e-01  1.65872514e-01 -4.39603955e-01  2.53163166e-02
   3.33251394e-02  1.12760283e-01  6.06276020e-02 -4.85762596e-01
   3.38011459e-02 -6.27100244e-02  7.33871579e-01 -4.40773755e-01
  -1.62172511e-01  2.61794515e-02  1.84637815e-01 -5.55440128e-01
  -1.61753625e-01  1.25898764e-01 -2.87332535e-02  5.81026912e-01
  -3.35616350e-01  7.96422586e-02 -1.62948027e-01  7.68078119e-02
  -2.43545651e-01 -3.62317413e-01  4.22543377e-01  4.96681146e-02
   7.58248940e-02  7.67918453e-02 -4.88383323e-01 -3.68382037e-02
  -1.17882997e-01 -7.62594789e-02  2.37880051e-02 -1.29653051e-01
   3.18757534e-01  5.67783490e-02  6.15206584e-02 -3.58399808e-01
  -6.23114109e-02  2.13679537e-01  8.04076433e-01 -7.12653100e-02
   7.40947500e-02 -2.40459293e-01  8.30238834e-02  1.31034091e-01
   2.89349586e-01  2.30818614e-01 -4.93101366e-02 -6.56296611e-02
   2.59171501e-02 -5.49751699e-01  1.98444515e-01  4.63242352e-01
  -2.57494092e-01  3.92023325e-02  9.07455236e-02 -4.29089576e-01
  -3.99512380e-01 -2.27417573e-01  1.53759763e-01  1.70926794e-01
  -5.02054542e-02  4.06007975e-01  5.03477931e-01 -9.73361954e-02]
 [-7.66200662e-01  1.63741279e+00  4.06559706e-02 -9.58307147e-01
  -1.05690444e+00 -3.79024655e-01  2.47040719e-01 -7.34880686e-01
  -4.50959176e-01 -7.65314937e-01  1.03242852e-01 -1.11736989e+00
  -9.46065336e-02  7.03497946e-01 -2.35238038e-02  3.42031389e-01
  -3.11184749e-02 -3.77024919e-01 -1.43743724e-01 -7.34007299e-01
   9.95042086e-01  3.75607193e-01 -6.05220020e-01 -8.05801824e-02
  -1.03893854e-01  1.11091125e+00 -1.00715613e+00 -7.31273174e-01
  -5.58359288e-02 -1.59880841e+00  1.01117051e+00  8.93583223e-02
   2.97353387e-01  1.85160190e-01 -4.72870946e-01 -6.57575965e-01
  -4.48164314e-01  2.16586459e-02  5.15348017e-01 -3.23306978e-01
   1.39098346e+00 -4.05182272e-01 -8.93801987e-01  5.86135238e-02
   6.33163527e-02  9.80019152e-01 -4.82636333e-01 -1.73993856e-01
  -2.49221891e-01 -8.96826267e-01  8.23834836e-02  1.65921485e+00
  -4.86259572e-02  3.88773307e-02  1.93513608e+00 -1.95002884e-01
  -2.74158493e-02  7.86598563e-01  1.00945398e-01 -1.80023775e-01
  -3.58885556e-01  1.78325221e-01 -1.35660172e+00 -3.20249796e-02
   1.97420463e-01  8.98548543e-01  5.85231110e-02 -5.75817049e-01
   5.72780743e-02 -7.51391798e-02  1.74334908e+00  5.24268895e-02
   2.76559830e-01 -6.35574639e-01 -9.28922892e-02 -1.58376783e-01
  -4.55089360e-01  4.16269213e-01 -5.85925952e-02  7.21265793e-01
  -8.57034445e-01 -1.42150819e-02  5.02443351e-02  6.55244738e-02
  -5.83416224e-01 -3.41645807e-01  2.48107478e-01  6.74761117e-01
   8.03970098e-01  6.96525499e-02 -1.62081802e+00 -6.83901086e-02
  -6.90221488e-01  9.35475621e-03  6.79269060e-02 -6.76697731e-01
   1.34090328e+00  3.42023820e-02  7.57462010e-02 -6.11463964e-01
   3.16610523e-02 -4.10978585e-01  1.12610638e+00  3.28384414e-02
   7.05991015e-02 -2.49696404e-01  4.27599363e-02 -2.40934744e-01
   1.22371435e+00 -1.63037907e-02  3.95465434e-01  6.73736557e-02
  -5.01109287e-02 -5.69360316e-01  7.28824139e-01  1.02044618e+00
  -9.94946539e-01 -2.93388069e-01 -4.96277809e-02 -5.73568344e-01
  -6.64759278e-01 -8.82773340e-01 -8.35468546e-02  7.80391216e-01
  -2.78352983e-02  1.24629903e+00  2.56053269e-01  7.49231875e-02]
 [-1.82525486e-01  1.13853884e+00  6.54124543e-02 -1.99687028e+00
  -6.51775420e-01 -6.03485465e-01  4.89046514e-01 -4.84125763e-01
  -9.89404619e-01 -1.53561425e+00 -1.82724204e-02 -4.24765855e-01
  -1.34677663e-01  1.30155218e+00 -7.03063548e-01 -1.73047096e-01
  -7.76309744e-02 -1.00983632e+00 -3.47014576e-01  1.26419574e-01
   1.85115218e+00  1.19272149e+00  5.26611269e-01 -9.63242352e-03
  -7.06012696e-02  1.56999683e+00 -1.75231218e+00 -2.91494280e-01
  -1.14615530e-01 -7.13540733e-01  1.54576182e+00  1.85949922e-01
   1.14357197e+00  1.21848427e-01  8.09851527e-01 -2.31244251e-01
  -1.00719821e+00 -7.86115006e-02  1.22193587e+00 -4.21456516e-01
   1.55674815e+00 -2.10862860e-01 -5.05639553e-01  4.38749641e-01
   6.88936636e-02  9.51248765e-01 -1.21815240e+00 -5.17181933e-01
   4.19625580e-01  7.47873634e-02  1.39130220e-01  1.36750615e+00
   2.22344294e-01 -1.43764019e-02  6.97008371e-01 -2.17586026e-01
  -7.89318979e-02  1.31176984e+00 -7.00524449e-01  8.21364880e-01
  -1.01333238e-01  1.61229849e-01 -3.10243070e-01 -3.57352234e-02
   1.54133201e-01  1.35797822e+00 -3.24235409e-02 -4.57805246e-01
   8.62547755e-03 -5.16935214e-02  1.32312632e+00  1.33960450e+00
   1.85276628e+00 -1.10879815e+00 -8.01242068e-02  4.64160085e-01
  -5.44402339e-02  3.79929125e-01  7.44602904e-02  1.09980273e+00
  -7.46307075e-01 -2.56034434e-02  1.73281997e-01  7.15780929e-02
  -1.08607399e+00 -1.28984854e-01 -4.97500420e-01  1.34218490e+00
   8.68560553e-01  2.39921603e-02 -1.20655787e+00  6.35901764e-02
  -1.17840791e+00 -6.39167726e-02  6.10568151e-02 -1.26370147e-01
   1.51510704e+00  1.15944527e-01  3.62123996e-02 -3.51864368e-01
   2.86758579e-02 -9.77687657e-01  5.84187269e-01 -7.25829601e-02
  -8.63862783e-03 -4.60828006e-01 -3.44700292e-02 -1.59691286e+00
   1.67503393e+00 -6.47171199e-01  3.90971899e-02  4.53670397e-02
   2.85062566e-02 -2.56323755e-01  1.24883819e+00  6.91116631e-01
  -3.67208332e-01 -1.25521076e+00 -1.24878176e-02 -7.87210047e-01
   3.85398209e-01 -1.53615236e+00 -2.11819764e-02  1.14122283e+00
  -6.71562478e-02  4.10875022e-01 -1.64247617e-01  1.23718731e-01]
 [-1.42227709e-01  1.27065992e+00 -2.03624181e-02 -1.86435032e+00
  -4.23075855e-01  4.88491595e-01 -6.16283119e-01 -9.18484986e-01
  -3.74176860e-01 -7.10403025e-01  4.86362651e-02 -1.27324903e+00
  -2.39519581e-01  9.35911775e-01 -1.52233437e-01 -2.32711092e-01
  -1.97289139e-02 -2.24310607e-01 -2.28537172e-01 -8.85551035e-01
   1.75629926e+00  4.00910556e-01 -1.01540662e-01 -2.36627869e-02
  -4.13623750e-02  1.27437210e+00 -1.40251648e+00  2.51521677e-01
  -1.24689028e-01 -1.44414330e+00  1.47919357e+00  1.52830526e-01
   4.67207938e-01  1.81324735e-01  6.06970452e-02 -8.54744136e-01
  -4.62668806e-01  1.12179667e-03  9.96464431e-01  6.20108962e-01
   1.24328709e+00 -1.74011052e-01 -3.19342822e-01  6.97007060e-01
  -1.74499750e-02  7.64721215e-01 -1.32562149e+00 -5.37419856e-01
  -3.90609086e-01 -1.04521938e-01  8.84340554e-02  1.28641331e+00
  -4.27376390e-01 -5.40546291e-02  1.27461934e+00  9.51023817e-01
  -3.50865424e-02  9.46862936e-01  3.41915786e-01  4.76153553e-01
   2.08309725e-01  1.38808861e-01 -1.10490894e+00 -2.08714977e-02
   1.07662745e-01  9.47903693e-01 -9.76551324e-03  3.34711730e-01
  -6.48059845e-02 -7.84384087e-02  1.29268324e+00  1.13322055e+00
   2.19675517e+00 -7.73339689e-01 -1.07966222e-01 -1.38762161e-01
  -1.31384820e-01 -3.82642061e-01 -5.69055006e-02  3.75019580e-01
   4.98490967e-02 -6.18718080e-02  1.73896372e-01  8.76481533e-02
  -1.21740103e-01 -5.66537201e-01  9.75807607e-02  1.29679596e+00
   1.35759223e+00 -5.62993735e-02 -1.48803699e+00 -4.82271463e-02
  -1.22685552e+00 -4.15880904e-02  8.51136446e-03 -1.06823337e+00
   1.46211958e+00  1.99821413e-01  3.38193998e-02  1.30334720e-02
   6.69696648e-03 -6.04806304e-01  4.91688937e-01 -7.25239068e-02
  -1.95376575e-04  3.35425884e-01 -2.21531279e-03 -1.43070948e+00
   1.59157729e+00  3.42089683e-01 -1.47519941e-02  6.27784804e-02
  -1.58350691e-02 -2.77564287e-01  6.14970803e-01  7.48628080e-01
  -9.52632308e-01 -1.40247476e+00 -6.63597286e-02 -7.66165137e-01
  -5.70002258e-01 -1.42202449e+00 -1.64171457e-01  6.05731368e-01
  -4.66789417e-02  1.22307527e+00 -1.14567626e+00  2.47836009e-01]
 [-5.04825532e-01  1.61720467e+00 -2.58055292e-02 -1.35944688e+00
   9.91650462e-01  1.19527805e+00 -1.42088366e+00 -1.52047157e+00
   1.25413966e+00  6.90465450e-01  2.13318188e-02 -1.83670592e+00
  -6.02994189e-02  3.54934856e-02  1.56323838e+00 -8.07020068e-01
  -7.79418349e-02  1.43720603e+00  1.20573521e+00 -1.81084669e+00
   1.19344175e+00 -4.46272135e-01 -1.00417435e+00 -6.00291193e-02
  -3.39430757e-02  1.44782603e+00 -1.05436897e+00  1.43243864e-01
  -4.58987728e-02 -1.60648775e+00  1.54120672e+00 -1.46829979e-02
  -6.09048724e-01  5.99256232e-02 -1.32994282e+00 -1.50121796e+00
   1.21634591e+00  2.55033374e-04  4.33097392e-01  1.50950241e+00
   1.23441041e+00 -2.61615694e-01  9.49684143e-01  1.25875413e+00
  -4.45996486e-02  1.29732251e+00 -1.23304832e+00 -3.69211704e-01
  -1.29743540e+00 -9.33264852e-01  2.24321149e-02  1.57638121e+00
  -1.14112532e+00  2.69057825e-02  1.70745456e+00  1.59689879e+00
   5.54262325e-02  5.13168991e-01  1.59554148e+00 -1.02337861e+00
   7.90914714e-01 -1.45007772e-02 -1.69133246e+00  3.22341993e-02
  -9.29995403e-02  7.82289088e-01 -3.86242121e-02  8.79070163e-01
  -3.13834101e-02 -5.67247830e-02  1.60368383e+00  4.46357548e-01
   1.55921006e+00  3.59587878e-01  9.93957464e-03 -1.27924681e+00
   7.59626031e-02 -1.10368276e+00  2.54367515e-02 -6.80915117e-01
   6.86138749e-01  5.27374372e-02  5.34557365e-02 -4.99683507e-02
   1.28276682e+00 -9.75751221e-01  1.55500293e+00  1.32115269e+00
   1.59586453e+00 -3.31175141e-02 -1.73086882e+00  3.26295197e-03
  -1.19902587e+00  8.48926045e-03 -6.41418546e-02 -1.74161196e+00
   1.55182922e+00 -3.41272131e-02 -5.66691160e-03 -7.80841529e-01
   2.62762439e-02  8.71834755e-01  1.31983817e+00 -7.97998011e-02
   4.51024100e-02  1.12173486e+00  2.66443044e-02 -2.57747859e-01
   1.57887316e+00  1.35223496e+00 -1.82556331e-01 -8.19911063e-03
  -1.63097456e-02 -4.73949522e-01 -4.76327062e-01  1.42317379e+00
  -1.64620161e+00 -1.24764359e+00  2.50373073e-02 -6.82310104e-01
  -1.67395186e+00 -1.38573015e+00 -1.01576895e-01  2.99097598e-01
  -4.35618199e-02  1.66286409e+00 -1.20681238e+00  9.51985549e-03]
 [-5.87196589e-01  1.21612144e+00 -8.24248791e-03 -1.20153332e+00
   1.10004020e+00  1.16604781e+00 -1.09235883e+00 -1.23222649e+00
   1.29849935e+00  6.56183064e-01 -7.12504387e-02 -1.32619178e+00
  -8.73563290e-02 -7.24671632e-02  1.38488948e+00 -6.33646607e-01
  -8.34449381e-03  1.42846835e+00  1.08449447e+00 -1.38785243e+00
   1.07399988e+00 -7.49230921e-01 -9.22779620e-01 -2.90937573e-02
  -9.35923830e-02  1.16807067e+00 -1.02874815e+00 -9.94793624e-02
  -7.60211498e-02 -1.32302904e+00  1.16548347e+00  2.16011107e-02
  -8.48432899e-01 -1.72854569e-02 -1.01363754e+00 -1.22120833e+00
